1.919206875381942, 0.3155639376613018, -4.21217597930309, -3.030630579567333, -2.807776989610612, 0.5215707385276669, 0.09442500293078607, -1.4166782015511985, -0.81513053157955, 1.9582537638795396, -2.91275894313259, -0.71755178186686, 9.815172263408348, 7.027031922815639, 5.2614424184488735, 1.0441665697375042, -2.2928630622546313, 3.818725517123206, 3.994435508427904, -3.213675962099943, -0.7647190915452835, -1.4365910827889852, 4.410557110724461, -0.9027312069750485, 0.8062934664782266, 0.2433368328045255, -1.0616989650562954, -4.92380110191552, 4.557940561385086, 2.0808174621327353, 0.39267980462396607, 1.7958473452419124, 0.49890738102434956, -3.9687221592276893, -1.1150666615423381
-0.7574537248120751, 2.4761113784057356, -4.043101123702361, -3.301209081343969, 2.9028672584144943, 1.1680714026277073, 0.7962856140524397, -1.2734737985086544, 0.5920731001288877, -2.6134721171786683, 0.14540435766423193, -0.4926512223174474, 1.160679510035202, 2.293711779420279, 1.170824566082722, -1.3960408853467348, -5.410943759810129, 11.103817841046522, 8.717498757672208, 7.962576998223091, -0.2956592595053929, -1.7397322611847554, -2.3054084453030788, 6.110045204879473, 0.2770539329007684, -4.259944180348829, 1.063145895324421, 2.4009975813972013, -6.274039176293651, -0.9717503099087498, 4.436755074155602, 0.4703921295335569, -0.5770892404827739, 0.39321689938133036, 2.5804535573993914
-1.1235175491691187, -0.3597250180124757, -1.0092784421892949, -2.18045996803533, -0.3911844550768212, 0.06060227924774046, 5.137428494629035, -9.79125150143655, -16.1161719418508, -10.094723165265616, -0.03995727396917578, -0.4776776986723776, -2.2036790471078485, -2.6003681419005122, -1.5718659949771776, -0.8926684461130555, 2.641900060352754, -2.7902189631991194, -2.910104404030861, 2.547726183631381, 3.808640563750344, -7.561400457234997, 0.522191073491211, -0.9033582570807575, -1.99255432808131, -2.2617358037315927, 8.202481860209888, -2.5429682737625305, -4.020523939014379, 1.7795232709178042, -0.7945786076961054, -0.23288014060459755, 0.7789062982947647, 4.856969513105128, 2.250156661825446
0.17890403322338191, -3.0426526938461516, 6.956916831643395, 8.264562985103128, 5.701445690000943, -0.5091935205501031, 2.5638921084806094, -3.237253291712318, -3.1270795199603856, 2.049806331091651, -0.20737246418700092, -0.7437967290004448, 1.1071368318246921, 1.2906432374015828, -0.8195841075083942, -0.7639153088131108, 3.448439419268629, -8.573696900679023, -9.98235812734575, -6.931263792382358, 1.9972064265701523, 0.3462176234588251, -0.16840343602578733, -3.379408190599878, -0.8915818226051314, -2.2094191311800158, -4.985278386878443, 0.2759004219021279, 3.4822900249851667, 0.856925877011172, -0.13396109436014722, 3.907107489029868, -1.5273611333451256, -0.6541497552965055, 0.6399572853770147
0.3267916388680717, 2.737225902108015, -2.871103563817709, -2.8591236429285285, 1.8638214401896498, 2.58225320130028, 2.8931267222058548, -14.813243514533958, -5.508392538177764, -7.030535122515623, -2.7859116930446475, -4.715542598464278, 3.4654454484233113, -1.1094997757797103, 0.7984711978679677, 0.6252065457551701, -2.563171783438342, 2.948491175674276, 2.2471533990855335, -2.329862157002759, -1.2762919604074514, -5.710446123643029, 2.117369576060016, 0.9267266430522844, -0.5897158739346835, -4.794070301616076, 6.230430024924096, -2.197601676335822, 2.03717817436415, 3.609294664527855, 2.7299399451981063, -0.23299644931569738, 0.09400228377620132, -2.1572223428239905, 0.09839367855428384
0.5247769439741763, 0.5079919367608394, -2.00720785120601, -1.3083809048349133, 1.2828935488315725, -0.1760680754167587, -0.28615951062293, -0.7745194852281387, -0.8416721827710929, -0.3587621149380412, 0.5997408572953521, -2.0834327849049368, 3.6119583305831466, 3.5202699826320902, -2.582635302847368, -2.77640681320512, -2.580347830709246, 12.567915911833358, 4.934334997857195, 5.94065356442724, -1.2701228809042475, 0.9167067332333638, -1.122507812273243, 5.123886424968326, 1.9539624122045052, -1.5809071261660979, -1.2935802234761582, 3.7353858147922336, -5.665749947656237, -0.0849534102190001, 1.9797171395972741, 0.057492383707, -3.398061328324726, 0.48590517259096405, -0.6465489633702041
-0.4024423834167037, -2.720981121429416, 9.514527826761801, 12.645520141189959, 8.465403883900457, -5.396709121502342, -1.012642856626038, 0.7218199444914449, 2.7664213945757594, 4.66309384065969, 0.43669624379002686, -0.1565101582279055, -0.6499895277331691, -0.17472436439466713, 1.2768603600888322, 0.39042214808820147, -2.876367962359769, 3.543231465751019, 4.09770881607348, -2.8159697633222502, 5.185453730187138, 3.5929781246236914, -1.3944906693865529, -0.6749220810813187, 1.8342393066614864, -5.489543218030853, -3.8094981064752136, -2.054416266558607, 4.943410347287531, 1.6105668351315074, 0.20514064835014365, 0.09587609898440017, 1.8929255885862775, -4.425922322504241, -1.7170774707057739
2.421162246788289, 0.1158789125354066, -15.027178890848768, -8.154184498970727, -6.418903282120936, -1.0734604352059933, 2.6977477583761256, -3.646676877940101, -3.238400689091413, 2.668053829953149, -1.5823711625245513, -1.3705104349265396, 3.043009678183617, -1.7977796340642844, 2.29145707526283, -1.1778372984505556, 0.027515603528846144, 0.2284838807674633, -0.6146379085734294, -1.641039514308433, -5.652026014194937, 0.8035617924341152, 2.253584843366706, 1.5188136224018314, -1.03004420184702, 5.666837453233451, -5.641459217272214, -2.8545154458801543, -0.029475094377821285, 2.0598574821481, -0.027740594516155487, 4.748998970607735, 0.28984478266692804, -1.1086861990640662, 1.4299223422987353
-1.485491617260122, -0.8552262228909275, -0.6178959116419597, -0.35652070971530453, 0.19995070393750278, 0.5916262972195453, -2.2707193688792247, 3.3242829563852316, 3.027728513477932, -2.318671936513113, 1.1109242856254649, 1.1615462019411262, -2.111261686500256, -2.7437544988088676, 0.9693704969689431, -4.4006019415957365, -0.6085359801964553, 12.600466496279026, 9.394681798626895, 6.669210122899053, 0.809829099463826, -1.4140853170019398, -1.5372979542669036, 5.112614472569095, 1.3646159503365947, -0.9736532465151841, 3.351756405908216, -1.7935235467586863, -5.7524462480006715, -0.1322505673502537, 0.04384192268096555, -2.898094670297234, 2.3055756858789467, 0.543107757921284, -0.11012184314814066
-0.16126706030285035, -0.16439266487677331, 1.1760892551087536, 2.786582489879488, 1.0855500461376957, 0.5930517192385425, -2.6143373757034247, 3.523665999153659, 3.1839405582557143, -2.873748165480504, -5.037591280318443, -1.4343808204064006, 16.447902096926125, 8.53898959737353, 7.5857666065071, 1.2241237633704538, 1.1271614798334586, -2.117199318637029, 1.07032155386608, -2.994747793990544, -1.9938812054407808, -0.06802940943182531, 6.243021473483551, -2.7575545028220723, -0.4790540929666115, 2.873509051372297, 4.286217534418584, -6.665023787739847, 0.9060225664744893, 3.235101019219999, -1.0174264353913578, -4.268542873541759, 0.5491408127457725, 1.1280890242154291, -1.2560492080888066
0.8626279368244759, -3.0095428707347733, 3.2096193331633924, 3.4279636188245006, -2.050317307469501, -1.0715334997556822, 1.037391602137161, -1.2812818509957495, -2.437375298568697, -1.2207602241003372, -4.907671902427103, 0.8134400859189511, -8.79539231988926, -8.152724676004313, -5.697573906225832, 0.08190368771450568, -5.48067511328979, 6.722391825773933, 4.75318506143485, 3.715804730634102, -0.38660719083224077, 2.8202889350168903, -4.8279256334042, 2.613073384876447, 0.1596656831070535, 4.880910077059301, -3.6098973248219255, 5.012845687856463, -3.126260459322561, 3.664838650289566, -4.630620736600053, 0.7148551055273182, -0.12553312546344983, 0.678250183752801, -1.6460414715513847
0.7148734709481612, -0.43196236056547843, -0.9601824951626187, -1.0664196447498424, 0.8996965261488145, 3.009430139050122, 1.8299249398779922, -9.58065076460689, -7.502358918639202, -5.650310909588042, -0.6622458560797803, 2.3913474873946954, -3.705914512569063, -3.9764678900233768, 3.0437125728122045, -0.33125358240227515, -0.05650054837176304, 0.4339765351016593, -0.872407357645022, -0.5509710555703592, -0.06921428973102174, -5.0931119136614, 0.21859845256691723, 1.4301552732729699, -1.645624796878833, -1.1190362735524706, 5.316488833076197, -4.439920563557339, -1.0299201809406402, 1.7193737942493537, 1.041177153424292, -0.10458569273650993, 4.440391368828049, -1.6584991169451635, 1.4199594550935997
-0.057289982073678344, 2.062313836372136, -3.2613235026162184, -3.0023111735009262, 1.7541763515564086, 0.3308719011871075, -1.8003495402442302, 3.0175225924137594, 2.8463949744949057, -2.207956840854924, -1.930054999153435, -3.8284948020889535, -1.7359094067040286, -3.9829198252283424, -1.7570209214161538, -1.2826532428214352, 2.415048362953458, -15.383719304276184, -7.536268211995938, -7.809406292388243, 0.5853011580959059, 0.4021456622566717, 3.018822039379231, -7.337324918337885, -1.549503751064271, -3.8135037403087257, 1.1566114590157908, -2.993809056470105, 7.594078940210925, 3.137330897697922, 2.2985205778910687, -2.576557619790586, -0.09189538715289056, -0.2536651367936453, -0.40710308666370326
-0.22877205219922375, 2.5323089223683617, -3.551496677469081, -3.644679833755247, 2.514709169647301, 1.0505697253072392, 0.282823382262411, 0.6161930983045102, 3.0244096858235894, 1.1707995816954715, -0.5784844418303977, 1.8955622768038032, -2.953536285037948, -3.075510087026274, 2.447872755404582, -3.7795331565725685, -5.195202763312066, 13.42257339379719, 7.742210594975003, 7.299258441029865, -3.343777452438445, -3.0317624751341437, -2.0736003196391244, 6.828642533307576, 1.968383747084543, -2.3277513963465344, 2.98932651193991, -2.373244683876881, -7.214599871303372, -2.337523675967667, 3.1842100514793876, 0.03147357466966913, 1.5340489800459571, 0.18461673929664385, 2.3965762629152394
-1.2571810532547358, -4.570373095345509, 6.801167866316765, 3.570527385426453, 3.327538355105855, 0.7881156728439382, 3.3791985115868997, -5.3138119381563325, -2.837406746601054, -2.0054536035716266, -1.2457577452398423, 2.396489136348795, -4.000121333993814, -3.4975319084542926, 2.4547290405084308, 0.18735928062701257, -4.936001086869309, 8.58189855114759, 6.76206787071115, 5.276608264875729, 2.8001167964457854, -1.9125843049254099, -1.008143192567311, 3.5226245423372844, 3.2952919538118683, -2.194849266718945, 1.9968854251335906, -7.5004955039440455, -4.03378837519725, -3.235366947351193, -1.1124516045877384, -1.8020850000445665, 5.099862272360849, 0.029384049090881898, 1.0819276169574845
2.117117653119584, 4.461621319211421, -11.162182393005613, -11.72226333427236, -8.70162083404739, -0.24453276863547943, 2.9630685727987673, -3.566789025500957, -3.0994877445247955, 2.3819454201364696, 0.3887247262745495, 0.3256766018607017, -1.1029385377942418, -0.9848396532371657, 0.15302065445870738, -1.6903330304676651, -0.3700050500779211, -0.40172340404148316, -2.85686326134495, -1.4050156004010093, -6.667918603739549, -0.3352602341789103, 0.4862323155349833, 2.628591493163741, -1.801999171063982, 6.814819155734108, -4.007323078152474, -1.1859310062231618, -2.4179287739094493, 1.7367899203677717, -0.16346255506217974, 4.337009033233712, 0.7911283650208069, -0.23593123426704726, 2.28975309413872
0.3467205942372548, -3.159369886456783, 2.6686159830418403, 3.251974187552331, -1.9720441902877541, -1.7218307700559015, -6.499118505414061, 11.437765060208864, 9.579524617051328, 8.188331288422505, -1.562816663827592, -0.6698527244204874, -0.36863332399159504, -1.7098681861885354, -0.3184208415313511, 0.34257687824294764, -0.04914150684901684, -0.7436865825010581, 0.35339239887145196, -0.437603678521461, -0.1560275554598446, 5.557524781715312, 1.1250424587883705, -2.336746166837325, 1.771030813227448, 4.629907705819515, -5.869295376594196, -1.406531443404824, -0.4620708353271028, 0.7107575269491235, -4.571312520395622, 0.2706503818819511, 0.15998799731669916, 2.3504786453445172, -0.6876420255881023
-0.9725454600020528, -0.16197316863882308, 1.001692154673265, -1.0330492691938966, 1.0145249519893136, -0.44810138949049466, 2.847148961748028, -2.9071485927429905, -3.2956499868241544, 2.4666661470709506, 1.7469524166364963, 2.7615687056522744, -10.161305685646319, -6.759660425796809, -6.291649968248027, 0.31293148725367265, 1.1571252704281207, -1.4670207923620042, -1.7187298117600016, 1.107220466323651, 1.7597800964283083, -0.2031196405916584, -5.148516113269108, 0.3960783127062329, -2.100311765584817, -1.9303038059988546, -3.7515006295685382, 5.401546893818915, -1.3441715921581665, 2.0553954756654687, 0.08324726899750233, 3.6434017015605904, -0.33254381381886816, 1.4523048490684196, 2.2575679299921876
1.6386996041145128, -5.404430040861564, 8.993944306762392, 16.61254568865948, 10.14913213163315, 2.976453290911678, 1.1425717508264912, 3.2967132467860445, 1.786144244094091, 0.9603023972735678, -0.5352066632244017, 2.009318176658523, -3.5478681596342407, -2.8180912529579456, 2.474935497148112, -0.5372046181620975, 1.8492064100791914, -3.201682039223157, -2.803201538198724, 2.3579143283526793, 7.871329384684629, -3.8367865030179824, -0.11039155668504275, -0.30447155868115555, 1.7913992513309371, -7.916176806169459, 3.5605993444308925, -2.5443349734899043, -1.8575247655702791, -2.055683778090649, 0.17886239813132526, 0.05067487158039264, 2.4050282944476815, 2.3648163654318797, 2.4118670606774097
0.7680988734812065, -2.749876658848266, 3.5500340742668275, 3.3601009235251613, -2.280260865084794, 2.9387692346293477, -5.538084882895001, 7.824384806963224, 10.887670566855846, 6.8636552626441425, -2.0661155436383485, -2.851124190993405, 1.4920683184241474, 1.482177883384408, 1.1346959013477973, 0.8952408890997393, 0.7364389920207519, -0.7689039218835422, -0.41652605272341586, -1.5726687510387927, -0.7596817904660792, 5.03193983243138, 0.18903640137614694, -1.8261802077852656, 0.5726813725967648, 5.3593442880178435, -5.2468046632831475, -0.9093231811169642, -0.8872970545780845, 1.412320565946944, -4.633096841203628, 0.2398926690541286, 0.45020936506335685, 1.8941504366247937, -0.5404131670493902
-0.2865423488230568, 0.38071199817576346, -0.22334640444621062, -0.18228983069597926, 0.14276930174031002, 0.11224462532362527, 0.44068723351859396, -0.1594141980292692, 0.2035766990131725, -0.4554503722282546, -0.2755521876226974, 0.24513614679763288, 0.2351282331463026, 0.10266149726777453, -0.006216657598214724, -0.23388274072355725, -0.03003581276803363, 0.5366298033346107, -0.02933609246211267, 0.32047636581505334, -0.5060130335525928, 0.13701077253995797, 0.18830750522178477, 0.08016334860613347, 0.326908143761771, -0.11640064798935613, -0.7110138990292837, -0.5511856566808845, -0.1585831092103605, -0.07860488201227729, 0.08908748423138543, -0.20734272896623063, 0.1141375356899971, -0.5517941687373698, 0.26939037193502086
0.3438140444995648, 0.22937070926833944, 0.30563025099125, 0.24224499469762967, 0.357756318802282, -0.23777985577007976, -0.40258185309714495, 0.24045588414987873, 0.5383709002074695, -0.22200802027254996, -0.03921430280138828, 0.40617233524655155, -0.4123498481375973, -0.18548903572299713, -0.36304772200141594, 0.0450281121328975, 0.27050835248402566, 0.036175158808174034, -0.07353738064606663, -0.30684617915715173, 0.08617612976362302, -0.058138907859231, -0.4502672983065898, -0.23612655566464794, 0.17786060110025165, 0.042666083561793335, -0.1463069727761134, 0.06095990967173759, -0.2366790618066403, 0.17132493403204124, -0.5674596650339867, -0.5382662302531793, 0.44930457903552773, -0.09295378828383302, 0.3623102994954334
0.10563005622276249, 0.2918198922852132, 0.1463409157941485, -0.05422901666290898, -0.0905514881274048, -0.057760828579992506, -0.4886151003950117, -0.24601267387842116, 0.589947077219783, -0.008245256705816991, 0.276027436904117, 0.31065256857034274, 0.3851201739950842, 0.17244689812872424, -0.15884451401278077, -0.07171582743374942, -0.21944235488055033, -0.3705068334651376, 0.015158512432253541, 0.28216715520575075, -0.1449140971694321, 0.13557684609280646, 0.22943642119569987, -0.31352765454008424, 0.4334169768771792, 0.13054814070197682, 0.1099514126267745, -0.09442773158456302, -0.37187725092235907, 0.5117706948476488, -0.052014943107608305, -0.30826028859144466, -0.15311181692381062, 0.15850592429266405, 0.3639921554454624
-0.19322834034679623, 0.326771231682378, 0.25226094818757455, 0.2442638164481442, -0.12447952308813998, 0.36633817673563074, 0.27591819568234044, 0.25386134286952267, -0.03540229492434293, 0.2661555060011273, 0.50058790474556, -0.19428188292585138, 0.4070043514700881, 0.2744349227882313, -0.11728152532377081, -0.5804705843761117, -0.27369333649230054, -0.6958948423340654, -0.43661807922316387, -0.20617400471896247, -0.23331660320013112, 0.04809986134820816, 0.1765253665845103, -0.6786957291627242, 0.18853655671158975, -0.26369607765304426, 0.3167080657059422, 0.02336002058659482, -0.08008245172397449, 0.5805475093329284, -0.1950780834360258, 0.023599445079520588, -0.8256402188628774, 0.6309617469902149, 0.22321871116708383
0.06784140481759625, -0.0558879728338742, -0.16227787003548327, -0.30856957713561106, 0.29345684943001205, -0.36630117160924935, 0.5726933371465351, -0.39937009503257037, -0.7410929539516532, -0.03710936317153101, -0.24216089772782617, -0.08210147211302055, -0.3254110161128216, -0.22192544052523183, 0.20986923080389955, 0.3607027542381929, -0.4177356542977061, -0.09974957795000933, 0.07923927624219831, -0.25690188421661847, 0.28757816765131117, -0.7427184924390866, -0.2601500733113526, -0.23130718607012463, 0.050580582447917494, -0.43757977511582524, -0.5406454622311375, 0.10931570000547064, -0.09184499022419018, 0.210305905698289, 0.3580072340684629, 0.6578350256909049, 0.19698529858744931, -0.6077963276973878, 0.5666591792852327
-0.44079633845404215, -0.2609696635779171, 0.006171576513264699, -0.25767619896818933, -0.17524978724310916, -0.047420533031253154, -0.1169158847265363, -0.12832325149131363, -0.5287507375354441, -0.17743381931602542, 0.44677899101289753, -0.19922695318320646, 0.4465729485413124, 0.18524458806520763, -0.10992895794637092, 0.3401191272550743, -0.03083189198862449, -0.015269393545848026, 0.35137779117146384, 0.038478545753007354, -0.6137338576060666, -0.20870265193732881, 0.13799176644701555, -0.23287157990516014, 0.13464758282473624, 0.15243395669065837, -0.04515253712071066, 0.15623126634072132, -0.4311730630460692, 0.3105479431475151, -0.10503071475697703, 0.3242482158137303, -0.5469832326433509, -0.44314351771222926, 0.21183823982403918
-0.5411393152583475, -0.27415231370663057, -0.19737026068581962, -0.5172655173098157, -0.09991471113531011, -0.24263762540041514, -0.4262553461218631, 0.6162716924730001, -0.031779275564148016, -0.2681896849424618, 0.21671417523020606, -0.2887358139864922, -0.14531151839759154, 0.14932176737551486, 0.3644778532127377, -0.19471266100451948, 0.07555262368530126, -0.21220672442034133, -0.09068969340036731, 0.16824931217759412, -0.6723416970283367, 0.23134778812430307, 0.23535761728169338, -0.5226353560461872, 0.10273898893771108, -0.014098845052621163, 0.38815130376849205, 0.041320520484031203, -0.3426581492814141, 0.5336878419439934, 0.10120284750058162, -0.550216772132432, -0.2119717287015023, -0.17708282267386893, 0.21731091133762742
0.1073727753971554, -0.3316621122185968, -0.669945405027466, -0.5863573392107708, 0.016206408482437616, 0.06564730866288312, -0.3363770162382034, 0.4116037280827605, 0.1423394655511449, -0.29889113504787546, 0.26590947354201044, -0.21500406538085176, -0.20109417381128375, -0.7052274632682198, -0.29690008591108397, -0.019587286006959338, 0.053189865668380944, 0.10542027614594301, -0.2029232308604998, 0.05237761991053971, -0.5293500289218189, 0.3678721205841981, -0.5802781201970079, 0.2614864829990329, 0.2888529742185776, -0.12416009178588985, -0.277734922598685, 0.24675067518138463, -0.09546749776058164, 0.31957314311236723, 0.4661446947743556, -0.7935941091544287, 0.20509986457473672, 0.17646321961270267, 0.5453380469903242
-0.16550377052612925, -0.3135057244269659, -0.603803994215265, -0.001189515857057281, -0.08341555542840343, -0.509531901342108, 0.09440300171666094, -0.4898253169564824, 0.17209545381370964, 0.22476948792786552, 0.5509816925462158, -0.5472900803233867, 0.39934034859448786, 0.41040873693818486, 0.04069628684273102, 0.07774533515971742, -0.13333355464550367, -0.22421771456704406, 0.12168815553067142, 0.128664909362343, -0.5418902179310229, -0.2514573636904966, 0.30792439859256243, 0.2520930590029544, 0.4471764001881521, -0.23106000596667356, -0.4523432328719933, -0.13921776560676732, -0.38245374746820293, -0.08893882084076371, 0.2654227785849778, 0.2897327479538462, -1.048031744578181, 0.1535201648755276, 0.3357088337220157
0.48312282237310106, -0.14158021367082224, -0.016006397072405906, -0.021699750480781762, -0.1893118307368607, -0.5734218165049111, 0.14086263987252828, -0.2875575022435956, -0.5780447682984032, 0.3249488455499392, -0.22250660235234057, 0.13130305264791198, 0.6369642666124379, 0.38824091880169653, -0.10806028296561693, 0.09920531975200574, 0.052329273612096217, 0.6158032233800645, 0.7598123414344596, -0.36369622081107644, 0.303992490583407, -0.6574043766891255, 0.15866083736099745, 0.6671579097725696, 0.5526988769319724, -0.5446995680836545, -0.21396675108600577, 0.04453409164663248, -0.1607015034594123, 0.24592675910906817, -0.008966907236946254, 0.33689670067334104, -0.549146973224199, -0.9740257315422516, -0.05720873912602961
0.23214973529640673, 0.45480219053422033, -0.45460571925883253, -0.2655084041750625, -0.056342612546524465, -0.5656939765102749, -0.2780326654210429, -0.060746156155087654, -0.3175060227594565, 0.17615287025573506, 0.05849753571297851, -0.1737247816304611, 0.4833317330726602, 0.41637869577371933, 0.24204167704275542, -0.041804809521658166, 0.36676047036836473, 0.3859564045557722, 0.12437659878264447, -0.23411253340404203, -0.03534746264149851, -0.6478851987352104, 0.2774864966808909, 0.34516256487642116, 0.3377900007046864, -0.5778783229008059, -0.01304676537085797, 0.26299448043274887, -0.006029391878497546, 0.48764949020898374, 0.5014524186467301, 0.10618363481876311, -0.6130243826742873, -0.29033353732911976, 0.4185514752846801
0.03626560112047907, -0.1226898756075581, -0.36614867415465857, 0.27350353129583127, 0.14815418787575757, -0.05756336592683842, 0.0066309228237957235, 0.6054405774735572, 0.4989734198226846, -0.1868317456374412, -0.1807727057173207, -0.411509911559589, -0.1956246975918108, 0.4434645269736923, 0.4705874637018445, 0.12688981839200555, -0.28867709253838997, 0.15654088950840883, 0.5309868457682141, 0.10414592791721093, -0.6032764441193206, 0.16866545148657333, 0.17763250455760388, 0.33582920777201164, 0.44618553440839176, -0.15845239247311219, -0.06833975518809104, -0.06621358716533894, 0.03673191253309173, 0.4321771509036426, -0.3160359691202964, -0.48829098237481483, -0.04351435224933595, -0.15653605461695136, 0.13532022998617638
-0.4752589278463707, 0.20114427317017194, -0.19474818321018703, -0.41330272603876, -0.37490486612634744, 0.22117305447035784, -0.33897345340124174, -0.1049578430335616, -0.2599098097446038, 0.39624013401391056, -0.5102781878515193, -0.03261976084296415, 0.22205215523539423, -0.2727546199527942, -0.2237030560185991, 0.10092353208899053, 0.3678926482875024, -0.23629990270490214, 0.2737567676501529, -0.11180141479453543, -0.3488215875218075, -0.07226318892148445, -0.4446622336978594, -0.32406943563269414, 0.02278605647945689, -0.40189621138266196, 0.079965771845083, -0.03684485473756192, -0.45448811278854406, -0.05630964450807991, 0.4878360479438511, -0.1816065859281525, -0.031606401860545676, -0.2227244452427973, 0.6033838526809089
-0.03285968896821457, -0.3095241112118385, 0.06694974732149979, 0.15170696712486145, 0.26727469953983646, -0.007165430790561236, -0.30572297958878036, -0.20548306690396245, 0.04401166130852692, -0.3556283026538114, 0.07764212104497667, 0.3034053739214591, -0.04528482973524114, -0.08645054998880719, -0.16679454830676002, -0.25526999704332604, -0.2369706952549968, -0.37718047279354006, 0.1854929739638433, 0.28822090609558565, -0.16236664022729635, 0.04234516669554771, -0.3977206893486358, -0.6887456558478584, -0.009988732965206658, -0.39021241546001884, -0.11722796920448231, 0.07202276269036684, 0.08031527032096977, 0.25044714719708644, -0.28260688303897424, -0.09543410783260523, 0.21480650094977002, -0.42709119132580836, 0.40450274583567686
0.3730645203819085, -0.36663201307188625, 0.0912045170795221, 0.1536601004953724, 0.2620699244400147, -0.06782008290491974, -0.010167451748607313, 0.150255422579733, -0.6833409747055372, 0.16215880952669218, 0.23511302634222142, 0.4265969979119792, 0.03380819417389692, -0.08404291084254059, -0.2500650769264725, -0.10210823531909308, -0.47640146413712336, 0.04988112292556514, 0.4053447271376305, -0.02168832559699296, 0.35478754339245233, -0.5375391175517833, -0.3283343544684067, 0.1589238460312733, 0.5330418660041157, 0.045606647035540834, -0.3789571846510734, -0.12241001531930296, 0.2334304502549791, 0.2699775334431039, -0.4974279079196811, 0.15656057799607884, -0.02416749817613867, -0.2680082662116759, 0.19979179742398853
0.32927238089956457, -0.2120839549139078, -0.35757740180399306, -0.3995317016993377, -0.35304201118665307, -0.2789878935080957, 0.13064858890900918, 0.3287633037765075, 0.20238196471781061, 0.12078406219090825, 0.23645743608193037, -0.41874657693900086, -0.15588429373480778, 0.38890907702751637, 0.38859443403851773, -0.3838848096087092, 0.29869287000370176, 0.01590923002942594, -0.48238233050803053, -0.23403218657990807, -0.5445386917598593, -0.005533415038943652, 0.15013015697137194, -0.2690245443274682, 0.07957214523835172, -0.41734301935175505, -0.11175116879525074, -0.13210508819623207, 0.20989964913612227, 0.2890697752942099, -0.4434731059834375, -0.3546545287073607, -0.18702778206297538, 0.36370703662536147, 0.29335357914703547
0.007773238662244283, -0.29759369580855904, -0.2994054543048864, 0.14491847920545675, 0.3800548809069795, -0.017854675292827252, -0.035675104634814034, 0.018183809379022302, 0.1825290795173497, 0.3720524260831556, 0.38084491963412004, -0.028525468675203686, -0.2494621470481365, 0.39264276842744605, -0.4499470366584338, 0.3705618567588711, -0.21832367250481766, 0.2118887824715806, -0.07742630477100529, -0.2652921540232382, -0.231541286103917, -0.09507986705522842, 0.011772941347845081, -0.0803348021106156, 0.34744147096959654, 0.2816795067161425, 0.18550971429842328, -0.5210782192146628, 0.14357075776563538, 0.4867289193801662, -0.25608190336823256, 0.01322841957938339, -0.5331145672175891, -0.45298168074012696, -0.09360631388784582
-0.31531333666913847, -0.14155403630618918, -0.09274219640291617, 0.12538641470079895, -0.22720702496572318, -0.08320585064086906, -0.29247401637777287, -0.3210903963638102, -0.23995502183493198, 0.3400629493840601, 0.47880776115752044, -0.1007924357100833, 0.3432365929054647, 0.34996175984518296, 0.09705875470118436, -0.11364888200647894, -0.2906921805407506, 0.4634220865014134, -0.32420901413891595, -0.31386516327327446, -0.39771099574133667, -0.3593803158028907, 0.006738494127933915, 0.0050618002216016745, 0.3306544697643564, -0.1709369072981658, -0.2926508438840473, -0.10331498689797892, -0.10278760691326352, 0.13000780189449848, -0.2279531761940294, 0.3153512747000764, -0.6554469239775368, -0.1823569211893851, 0.05473729158017317
0.3310531599451336, -4.5471315610687887E-4, 0.0032313149897974405, 0.002673401362431215, 0.45726197120349915, -0.6457081946712533, 0.5224075177331609, 0.027505508123336585, -0.18921394194429214, 0.3653520825433764, 0.39976854636998765, -0.12663582458186587, -0.3372156247714323, 0.30410370102295736, -0.10965979289475004, -0.24561176148496808, -0.21703347468995637, 0.007627827388360453, 0.3873677167247592, 0.39690257025956166, -0.11732071285433306, -0.5749689757304326, -0.025165072021031715, 0.1385337358916213, 0.25701437443188335, 3.096894375595356E-4, -0.47755746448114306, 0.13957738767464473, -0.26608887201508996, 0.2639207202963192, -0.014042848960510763, 0.33435264927569164, -0.18314545902327287, -0.17229879395831108, 0.5789435272899518
-0.16168260884875676, -0.41303944845346263, -0.4881338310578481, -0.4755379779244055, -0.31202999103794793, -0.1951456631953174, 0.3434313397414459, -0.22124937565796352, 0.2162886323149565, -0.20600079009803224, 0.26697050254063276, -0.3426037898494783, 0.5438428073020063, 0.4424620403570171, -0.38919115967595663, 0.5583217670351349, -0.2789355234297017, 0.2191035139401244, 0.27199595919030006, 0.25954430166725373, -0.4892842687244651, 0.02140087545473472, 0.4692360938473277, 0.008668060188876517, 0.5843277278157087, -0.0074245862004990865, -0.09441998984518138, 0.35932644109271394, -0.22564013656544799, 0.5537376059320073, 0.22435060169845397, -0.03269187823187102, -0.19867230502424127, -0.6902772346453817, 0.19270954581488775
-0.1843853343685364, -0.0029701823012275416, -0.34886960658811234, -0.3493735539312207, 0.08726175430205572, -0.17055230300329616, -0.39111907656283545, -0.08153043113435847, -0.11008328255785794, -0.2814588362213018, -0.20383153915671676, -0.2687729424326407, 0.44933998476331627, -0.05540720399659075, 0.09347605708717266, 0.38576926314639587, -0.3537173514932067, -0.39131715819652935, -0.43513911868285937, -0.15211412893057255, -0.36841372929147115, -0.21028107801300092, -0.06673416561223777, -0.18153848690973817, 0.1649455562304399, -0.06383347663807767, 0.3488897983517986, -0.3334132820093335, -0.36182481625657414, 0.21625916173855142, 0.035554133117063375, -0.03266071082183455, -0.6937657458561944, 0.010923612690986104, 0.2674817554732114
-0.38422125446306493, 0.13215203826091454, -0.22538127228956945, -0.4039933185111918, -0.3930625351754181, -0.21931359936475212, 0.37878348253942146, 0.12815739257308695, -0.1626305431114361, -0.27179780458348096, 0.026418797889652026, 0.6086783842135167, -0.453787521717368, -0.5887441938384387, 0.23097619977854375, 0.09343492617391114, 0.1182335963790594, -0.305193602276517, -0.2657845558149381, -0.38868703200071236, -0.20168966842815028, -0.18138153359650644, -0.5165803083637447, -0.19628641494473792, 0.008423793142605033, 0.055475819631831715, -0.08430441318909232, -0.4201736807536876, -0.4029713945142086, 0.22888924434090013, 0.15846399894346608, 0.14630204101032154, 0.5747049023251755, 0.07351217087290875, 0.8055517046012381
0.18041372263911684, -0.314215256357608, -0.04053132316434759, -0.4318590579768504, 0.33761987080953554, 0.4772060853213355, -0.031957855013565434, 0.3003421824953937, 0.07224134385534679, 0.1471141081612824, -0.24695256978159308, 0.05070357801111948, -0.4252649547415756, -0.38067572008389666, -0.025783367605875917, -0.18677615139659573, 0.44305194932199005, 0.20042162535163677, 0.46378828996686194, -0.06466422944242295, -0.5758285395993894, 0.3794225480095833, -0.5212879049905859, 0.3301243323868421, 0.30757098444528097, -0.2587495671346947, 0.1857366512520795, -0.39720701877025844, -0.1112920433534586, 0.2953860495108978, -0.4035970711411408, -0.21299875489643308, -0.002960214366008812, -0.06601502865445188, 0.22161984434918744
0.04526688093208721, 0.07194163510261072, 0.49339228843204425, 0.5791391559210431, -0.20464398327985098, -0.3994356122899857, -0.15229221708596552, 0.3007485001511078, -0.0756290048480139, -0.3023772824021288, -0.4441962157818031, -0.4548479536091796, -0.29008471036575667, -0.2547554128268701, -0.4789201715095384, -0.10684656978303758, -0.05811420475498461, 0.47147108938369137, -7.561595645774776E-4, -0.22155574022582525, 0.17032417410533723, -0.09156464195825778, -0.698532939871221, 0.13157860164157234, 0.20118213217005826, -0.20833398237025405, -0.11450917665011834, -0.23147137979682292, -0.20418504337398832, 0.06762534610479787, -0.5692005770438213, 0.0894173035056042, -0.2745600461284155, -0.2814374499122033, -0.03405762856311788
-0.2696593719618038, -0.07263521936724575, -0.461821781730892, -0.4633154816253034, -0.3524634913552362, 0.1236336282184614, 0.054397777413309034, -0.18605716163214134, -0.4021453960253444, 0.27012820293576684, 0.16391302861888163, 0.11047398469024163, 0.3051210568145242, -0.010703118469357432, -0.040109499776287534, 0.27692219680980845, -0.33703857270366266, 0.4966105902659752, -0.18944117338338767, 0.11796215836874657, -0.26680908631569905, -0.4694920053536331, 0.29556910763377375, 0.054800226188064204, 0.40898270185074703, 0.0259542843683057, -0.3931411791105988, 0.28764721265386767, -0.4032764877480682, 0.25798058673284263, 0.5738850276950228, 0.15621805159731386, -0.09594497058851785, -0.48430807802814396, 0.6640220148865593
0.12493987952066381, 0.0013660173604224093, -0.22092102665011829, 0.5331992520286469, -0.24583093290314434, -0.2207952809268972, -0.09451245896506155, 0.07103756118421964, 0.19194795603772308, -0.05740633615169514, -0.1974005443771117, 0.14269444248422952, 0.29362723066716295, -0.43861262964814585, -0.09943713917756994, -0.2518153238386826, -0.36897464970126026, -0.6436284840845257, -0.34160720024563074, 0.3588265330604203, -0.20406675238662483, -0.15209438845786952, -0.3237803957220018, -0.8123638430970953, -0.14581893789603365, 0.12978950227730732, -0.03194877793333553, -0.19577611179284507, -0.08011967392593862, 0.5032633360193638, -0.4429313274863821, -0.2989755223993776, -0.10198017080630925, 0.23499405891149366, 0.0786753419490788
0.17572856086669025, -0.4607025562310994, 0.3242547091440755, 0.0024714815340667147, 0.2160044740437802, 0.14212407662169896, 0.3099538534915393, -0.052640250832835106, -0.19067229366572688, -0.20179641937271628, -0.2989896719799452, -0.14287000537572472, -0.24322096040782232, -0.07433138506182642, -0.21327326460458396, -0.1115046210343931, -0.13728108096050184, 0.08767692181355867, -0.075201926289965, -0.29327870625815583, 0.31893902393625156, -0.10302395101809547, 0.11993165259561892, -0.46550090031818503, 0.4910961332871354, 0.20412372513832666, 0.03217821329013086, 0.20121252526892963, -0.2930070126614902, 0.5685401724369648, -0.2205736060981144, -0.3702886306757733, 0.3623016787786208, -0.5177550717193429, 0.1177638564784112
-0.07221534352036181, -0.1317070366188892, -0.2315753886862598, -0.4327480903078301, 0.1523828959345282, 0.3276080629818447, 0.3438569495953823, -0.22958879127049694, 0.11329504719770438, -0.11311417667745578, 0.04246070568811196, -0.3428166291777479, 0.6924294637809797, 0.606919992189649, -0.36301176284680586, -0.27155552039685316, 0.26337171848433905, 0.13812095693830254, -0.26613498466134256, 0.007362539753593499, -0.4378941339146745, 0.08977314858406397, 0.2075069536015803, -0.22527208987066155, 0.3981306884613518, -0.5294039769250811, 0.06313220336451975, -0.10803189580791343, 0.12632397947130425, 0.43480231391376806, 0.30924118717332105, 0.1232634846025109, -0.8752632121814947, 0.14865755956263982, 0.1670954891595748
0.5072893537653363, 0.11436122199953097, 0.18519142716507792, 0.6389116147058618, 0.16368771991455555, 0.3339254444897023, 0.179984515251721, -0.334498912494429, 0.1391387118300559, -0.32650646079951046, 0.12670831990027273, -0.05448572415718869, 0.2707024599053197, 0.24301371918137146, 0.06438455685930328, 0.2682066496946516, -0.029431575332093625, -0.3991961800017592, -0.0646637289675667, -0.28525282019017706, 0.26227300721730124, -0.24614907306784126, -0.06247103283114476, -0.5040689846370148, 0.2288098911230485, -0.1428998728783299, 0.005211466790664286, 0.022758784588167692, -0.06348857850256318, 0.4189582053626526, -0.7323094583511914, -0.042501283182566435, -0.6873168984721438, -0.030824147181880035, -0.17047875171464855
0.009967697223066167, 0.21689675355521287, 0.46058610331979266, 0.16276078588625092, -0.05354593749662197, -0.12517031979415058, -0.13910325187114067, -0.24581468531932013, 0.3716726043676996, -0.4564135453604652, -0.21833886847172942, -0.12189790813552653, -0.11360959698197454, 0.40460219020833627, 0.3956187759934013, -0.0030098320788038975, 0.24391918641608232, 0.4652473017365335, 0.23152604316325903, -0.29631496118667755, -0.31869987988065984, -0.3244878530480685, 0.1463522478572478, 0.32142301270650797, 0.35546021938423716, -0.2932676319618738, -0.21364870937007416, -0.14669352295343607, -0.49485770862865813, -0.1277818573108216, -0.6450706629649938, -0.2130928017037477, -0.041922515143351186, -0.5930001770462846, -0.1617702948733099
-0.4630952208926036, -0.05776419498515129, -0.5875613728514838, -0.1550218558697293, 0.2929545978488161, -0.023470370389952453, -0.16351721056940965, -0.43382669379590616, 0.21214693250785377, -0.46203699430723383, -0.28885257606538856, 0.49421519201012093, -0.6815291726184693, -0.027936348882418364, 0.29216903281962825, 0.1348817509701428, 0.36564458367898395, 0.5561602105757939, 0.06279856210216359, 0.12118290317436486, -0.19964149119806232, -0.5007850167616504, -0.6819795640796132, 0.16993612238195205, -0.11255300554743056, -0.22844440425151996, -0.22790634273549923, -0.5960640906644122, 0.30123321944114007, 0.3813129562992796, 0.40677731807551537, -0.15271012503745382, 0.23196678038271923, -0.35073504496789293, 0.33637311113326573
-0.1418446621581438, 0.30256682612329344, 0.626808758080336, 0.43743627629302567, -0.06609323383368751, 0.33163072901795815, -0.024467913946238325, -0.30698899919453865, 0.20911958760852267, 0.4552642250302634, -0.26138806501326306, 0.48588379465754905, -0.25130126679364817, -0.09201495495183325, 0.2706821472934398, -0.34229328873365794, 0.37938728541145095, -0.3638692736068711, -0.49743113853300197, 0.0832962232110415, 0.4236916379578292, -0.1652707427946255, -0.175673404111569, -0.5625907033073478, 0.23407553958009186, -0.6245816594365851, -0.03803242658270838, -0.3176349763467794, 0.050409464638566985, 0.27164890893906624, -0.5229153509568201, -0.17355312190175765, 0.2308494830345852, 0.3129823470666058, 0.3649894383223487
0.2752269880861708, -0.08679928715699005, 0.2107690344271935, 0.41809382537287665, -0.22987669330197835, 0.45926875664926076, -0.4591875468237185, 0.4486927091798311, 0.4479050988859887, -0.26570781406576305, 0.08269253703647424, -0.47102647701797457, 0.31845438777407403, 0.6446613043931442, -0.31487708422990535, 0.028176588500788847, -0.18503684103532836, -0.09041034902266275, 0.3067579018458544, -0.0695619243894436, 0.20599672587900464, 0.08887795140438519, 0.11905422615572803, -0.4889980917423511, 0.4821877740999392, -0.26328249288503064, 0.14599201617226495, -0.03745559121322967, 0.1519610815709605, 0.48987964223018987, -0.3684692629622105, -0.4284277450216795, -0.5849126389692918, -0.21421818548576832, -0.3124783074914576
0.29546833048970494, 0.07990391257697062, -0.358331880074748, -0.4490372921569017, -0.1353090038373928, 0.3414219322296006, -0.05953256089602187, -0.1625303673104578, -0.13036827982020943, 0.3529130946725919, 0.24347497978614216, -0.09349986848690481, 0.25122988668905305, -0.05146482587043983, -0.4175299793761529, 0.132361714951345, -0.35908680979306545, -0.5279823259288604, 0.007267041047911054, -0.18695675284309926, -0.4540245311900674, -0.1459183652939944, 0.2692168768820479, -0.392467183339419, 0.193571730986075, 0.14407580202259218, -0.39245943999478233, -0.28727937124611574, -0.2901175742449968, 0.030264846650890284, 0.029437810977956502, -0.10928226986806874, -0.31295670827103284, -0.1366566398884824, 0.32846197286106654
0.43612673735909485, -0.3473124744022541, -0.19723637228413218, 0.47078043342048337, 0.42916523285179947, 0.331691990070738, -0.049852903354431, -0.40246131364390975, -0.284434267344258, 0.22757683430514036, 0.2277947458169922, -0.14361182910185855, -0.2747170757087415, -0.22332218058928505, -0.18822397284291095, 0.4741103250025639, 0.3281904340838215, 0.42250680645914446, 0.29366857598075413, -0.19573149262781753, 0.21525155993850956, -0.16311621441109905, -0.19114011449078064, 0.3118288421309077, 0.36927657440205947, 0.19841315563874173, -0.1603789933970301, -0.15866727185150709, -0.6413930451959238, 0.23918397630451754, -0.2662744005614437, 0.10982943889787336, -0.21119602328990394, -0.6990850508396753, 0.10189375342506508
-0.32448485486219053, 0.01023993724625889, 0.35258637815328836, 0.5259612808832979, 0.3373344516040563, 0.2354082160494356, 0.13202064007325368, 0.45520300446590384, -0.11352292544724672, -0.16886372075487255, 0.05305740092136617, 0.305744086679614, -0.15896991324572227, -0.12608242298989122, 0.05680203923547129, -0.3917195980015447, -0.3750416541895395, 0.3452230338479636, 0.5162855734745673, 0.45669007234597253, 0.11918561762886976, 0.06976400110161604, -0.5372961789884514, 0.47904167496861955, 0.4859149049896797, -0.25947159461737107, -0.3480018690081885, -0.14699887480139395, -0.0840437854937239, 0.0825015873552402, -0.4017989201003769, -0.35747169832931547, -0.16652504783249397, 0.0672981627437668, 0.2620966899282801
-0.4667881209419497, -0.2857776275875466, -0.2379700263086064, -0.05703153786683248, 0.0893757344405509, 0.2464571502572743, 0.3360431681143141, -0.013680448118660135, -0.4640213956772262, 0.4379372508272038, 0.11653429425060174, -0.11186722033628672, 0.1754199675757582, 0.29917051545866474, 0.2156142903040234, -0.006275224178791734, 0.3861633778362669, 0.13713617027209482, -0.37861221873291456, 0.02020601533138478, -0.4867684159508025, -0.39554202374878444, -0.19509148035743923, -0.18587802178778656, 0.07837738103633136, 0.44455179869109107, -0.16860128161959909, -0.21694752962652147, -0.47595938841154334, 0.40115863463116563, 0.3159916976281091, 0.3000401925396601, -0.7128522922415391, 0.10387001479324241, 0.40112412735348163
0.4277990364685838, -0.11900534793596863, 0.09095222834157837, 0.42483435138589537, 0.12482625980011369, -0.21708243523579585, -0.32231148094389106, -0.22883423078431747, 0.3851070319862174, -0.20231364680623484, -0.5995319503579835, 0.4581468545255775, 0.09526456954386563, -0.6519692718915944, 0.3573591713148945, 0.1060510965180537, -0.24504070012535853, -0.20154653785590268, 0.42859704082490435, 0.15088662730123778, 0.23457356110547314, -0.1308553102152976, -0.5724916065725493, 0.31746473121024077, 0.4095939698844178, -0.06423564812746502, -0.2838539892179872, -0.3752885037541606, -0.33360113157543375, 0.012941423401906661, -0.7522268891755818, -0.21176482251684245, 0.39712511227405195, -0.030682082761081114, 0.27238917605672763
-0.34052638215185865, -0.2197224598348447, -0.012786897098907478, 0.25586188894664197, 0.16308678670806132, 0.2622020361376324, 0.12099309390214107, -0.2212050284732118, 0.3684829415734737, 0.3755806714173515, 0.06656962503146828, -0.6135225830572555, 0.07576269372793729, 0.403603516264578, -0.09220792192228755, -0.22516917588331037, 0.3667732957231645, 0.13008734095246208, -0.30596388267154706, 0.26981435555660044, 0.16099955542015223, 0.13983468821670209, -0.49512516683277674, -0.6185522388906384, 0.2719175330104678, -0.15181234833781826, 0.09476188354508903, 0.41440757121261973, -0.3864768424657813, 0.4631814838669378, 0.2372627094900754, -0.1835862875108625, -0.7313407643755064, 0.04537974394106235, 0.1668428968384629
-0.2546126567053773, 0.07798378703995035, -0.6678753864378959, -0.19261509964068121, 0.13280673789203723, -0.08914319227014993, 0.25948692717489946, 0.3636020830768017, 0.5178618417807476, 0.0691839705190708, 0.14933834966085865, -0.10287809942758305, 0.3998915318318266, -0.12606625017444986, 0.008537524706598338, 0.015237061343629245, 0.364347252042838, 0.052366569674610765, 0.037754024416460995, -0.39599056192863374, -0.24210429246767562, 0.298582574392635, 1.5912971055719082E-4, -0.1133659694210795, 0.426398658449761, -0.11455065661356156, -0.13879340390386463, -0.1623148759543443, -0.3662207321129562, 0.1141743583975115, 0.6012791134915757, -0.5743298338736407, -0.54275709600297, -0.42929174296840644, 0.08453700014297068
-0.1770296448328377, -0.2548218513360969, -0.2857600638562003, 0.20618133620852247, 0.0065379308221474456, -0.09033232160823461, 0.04182014068269489, -0.08279800929620021, -0.4168187909848798, -0.018181578177852365, -0.36095413787244107, -0.17597947850646775, 0.24601553632621065, -0.5120145274860897, -0.33379190382199314, 0.013220266901075068, -0.13862385258356527, 0.632666104256499, -0.1508299039514157, -0.2874488390138241, 0.2849249579682104, -0.3451527992523649, -0.5955028914856848, 0.04105880402998909, 0.2382238044389877, 0.34146531451060563, -0.01762796959386943, -0.1172624823583035, -0.05319261788408759, 0.4072320830475622, 0.2116514550431005, 0.040030963761972634, -0.24850431544524887, -0.5391713585331942, 0.34301920323738955
-0.3123084431283048, 0.20965940421886076, 0.036990461192322625, -0.3334375786471728, -0.0868379656188035, 0.15526985060455864, -0.49525584368584136, 0.3301968542572076, 0.30262229638125654, -0.08549159095478856, -0.2516474539723207, -0.39501626829356257, 0.01578924479901531, -0.4405982738892275, -0.0435044485835896, -0.1419764295311718, -0.27125990690207513, 0.56133692332729, 0.22702779148037988, -0.42674855395236005, -0.4580144889437181, 0.28605976119134946, -0.5022045700405647, 0.2686081529128005, 0.26846350894173093, -0.16664900147127898, 0.2552877973159948, 0.14232076350902265, -0.34763851123694034, 0.5048161153999798, -0.029681499178030375, -0.37808179687430293, 0.019361036440920718, -0.43134829256346724, 0.06846287612453403
-0.08521122268503878, 0.12227073028128321, -0.4386447261527871, 0.19294958469732595, -0.33449239932302, -0.1273702519031557, -0.17402020939787896, 0.16492295471735244, 0.4546834879348767, 0.10412117289300998, 0.044611822764823755, -0.1926919178787704, 0.609655467017617, 0.2968678594405197, 0.03526216485336194, 0.07349929475810107, 0.34940377766107605, -0.25637722275444447, -0.23964724007046842, 0.34081119912101, 0.19412010890752007, -0.11642382270231419, 0.5036405722261595, -0.40116025987995235, 0.5686958468882777, -0.44281877676601183, -0.33666653896250504, 0.1575834972532419, 0.01490961305036189, 0.20230533229218758, 0.30046715288649134, -0.5041069812915004, -0.34750677184170353, 0.2018021285066528, 0.4711459877535061
-0.26414637905025434, 0.5200134181194427, -0.0989594998800744, 0.07002458277709021, 0.4053984807810784, 0.07524694149717788, -0.028408347930300913, 0.08918947205592484, 0.3481390674266927, -0.19824847861167344, 0.19702934236002817, -0.04993374444326502, -0.5422140508204428, -0.4479371790781838, 0.17692848291220697, 0.11253123285542976, 0.18997309380882924, 0.24125877860359207, 0.6214664463546189, 0.27872241921109625, -0.0141307182540356, 0.14564145169645645, -0.3733210309693222, 0.43338760707749113, 0.5632054087261422, -0.6235770008396515, -0.37717675045347326, -0.14016129607846603, 0.007886352303067896, -0.02951872976194332, 0.3105246461854923, -0.2479593033381356, 0.3844458430937553, -0.35870635441889376, 0.6203960489728095
-0.29329048915145073, 0.42320730012274643, 0.05574743632961876, -0.059969286854108704, 0.06777766423593247, 0.023490090763166566, 0.2735847236111412, -0.46630839082739683, 0.34525305232850223, -0.11702550827576849, 0.28183799846157137, -0.36309621205270576, 0.1796815244781807, 0.5377077130519207, -0.41721467867630874, -0.4301038986788408, 0.3828967314581003, -0.31679592045923677, -0.6348645271597244, 0.37218555590336533, 0.14162634400543575, -0.031118619974042885, 0.2520176264252707, -0.8038950555630537, 0.2971207898436418, -0.14038930025146854, -0.506533572814127, 0.14082890917902433, 0.08310795434632136, 0.257857227274074, 0.26902601325317155, 0.07891397829121685, -0.4957114123151591, 0.41617938897773166, 0.7131232600592949
-0.4620738054520473, -0.2543157085461989, 0.06979347270365722, -0.1852611342878759, 0.37971813737348575, 0.3572116486800743, 0.19408281873703878, -0.1858815693014622, 0.20123761748139934, -0.06292576853910778, 0.26219126015463656, -0.4935934440679912, 0.622184940251841, 0.6461169880933215, -0.12204784551081124, 0.25010026270836855, 0.3390491424419533, -0.17470224575506565, -0.11384657761498024, 0.35312896253357307, -0.5820656811319703, -0.1044466550987413, 0.44667108964325186, -0.2264518231786914, 0.3317505078889127, 0.17018957958801237, 0.02054940076273091, 0.11494720531128917, -0.0754981693936102, 0.3940325619932152, 0.13319621741980592, -0.17620021479505663, -0.9260109861598813, 0.21338045069139858, 0.3489093286067002
-0.13447385118095312, 0.060387217697650944, 0.5876637843018676, 0.5742539991822085, 0.43014021948955034, -0.2773474167396112, -0.13473910885766688, -0.4993589535893266, 0.1432133965086982, -0.21265371925201526, -0.2595505027265828, -0.03265134235485432, 0.5856587460548716, 0.4040981974528522, 0.31335069567943347, -0.18939407097063551, 0.24014639989057648, 0.6202468555058352, 0.6758630249119358, 0.06544705205111799, 0.4348109401253387, -0.06108858990249758, -0.01358332778060419, 0.43991314525430986, 0.8122906699057786, 0.15836850129541757, -0.13642072760143817, 0.07021501255040764, -0.25169031042046297, 0.3507047469342451, -0.280322047397474, 0.4392482007038343, -0.6305964617607126, -0.4793288551186699, 0.2723993674741663
-0.018910032649948894, -0.2367858259506345, 0.48071364712799436, -0.06112219227206444, 0.09230751875782024, 0.4088527651300516, -0.31842021845864443, 0.044652815079551586, 0.0308637232134929, 0.28972052139967336, 0.2936011833970527, 0.04756987498577192, -0.027039605014419203, -0.34103876376864417, -0.2996766497827693, 0.4263745533272087, -0.3112399639101043, -0.029285787339437847, 0.422421480765118, -0.2454166339946545, -0.21612735682011214, 0.010775226242182289, -0.1937735536225007, -0.228914708005616, 0.12732862963593014, -0.4754924383186997, -0.02549275821699685, -0.1585026084898846, 0.13604025401111017, 0.23363391468813818, -0.5074428087863583, -0.27368346515013897, 0.08098731165323719, -0.4972389324395855, 0.06805417603394218
0.3078670161086916, 0.03147542708217065, 0.2213696448436217, -0.3022136081428484, -0.1840125243323079, 0.3030252319145437, 0.37355706422284274, 0.10961674936300174, -0.46798133583435175, -0.30952098955452206, 0.48558351969386465, -0.24633227950298037, 0.11722560490448426, 0.13160194336144201, 0.05491403866343719, 0.03555304149466529, -0.4055346692544761, 0.3680476351402178, 0.27706649084406393, -0.2235787484739668, -0.373334113442202, -0.5837344237123061, 0.3995831106630705, 0.18996090812076513, 0.37867615329195925, -0.3578696857608643, 0.028229001200917026, -0.09950394978655827, 0.2410918931162585, 0.35875184322723225, -0.29935818118430885, -0.19878262128832308, -0.04061978271280398, -0.3657388160240314, 0.05898270517745259
0.40692920228288776, -0.420583607638693, 0.3572889372151967, 0.42704057634409803, 0.12426441535145645, -0.17245909588964795, 0.11824379566284858, -0.40465455700063724, 0.006088113455569134, -0.03101342350525021, 0.46610826822515217, 0.1919963684673031, 0.05598227042546481, 0.28006479092357894, -0.2843603878082949, 0.14645977058158915, 0.040210862331766566, -0.5024994131732989, -0.23516411115015054, 0.2004736475604672, -0.07280310295489602, 0.038609794292626384, 0.2569419191018753, -0.6392332151560068, 0.3822843533406589, -0.2007841132577758, 0.17282438407591424, -0.22270504351995227, 0.07989163872004182, 0.6003318401101972, -0.7300170713324398, 0.5254943965287595, -0.46173495830881994, 0.07649470339080863, 0.10873150522098497
0.20463423445654175, 0.24544087502228723, -0.19087766772674455, 0.1838703335223535, -0.2279488676454774, 0.17179357127020642, -0.2878386309285636, -0.348583300609231, 0.17165938824180868, -0.0028220577501627694, -0.33090009267950277, 0.1399041001124574, -0.36019161958728546, -0.629502674451373, 0.037301864205973125, 0.412488895541618, 0.045508166693570586, -0.3034830691305952, 0.012867956766144696, 0.17613265676109782, -0.07039175486218639, -0.15597050428478956, -0.6064900462966901, 0.09656983702132851, 0.2782010343048307, -0.014278930241977753, -0.3655889942945894, -0.20280690352727085, -0.3018065402789512, -0.055623810197395915, -0.12444591096311736, -0.4174412660322535, 0.2638230901476961, 0.07771492825414505, 0.4659800411457744
0.015447376114525877, 0.3813616564872521, 0.2633237701688613, -0.03676089871050393, -0.43061592152181033, -0.4718135275313993, -0.09055487741528974, -0.3860337277014, -0.8168160981283071, -0.12572633499249286, 0.1332258720725038, 0.1998259328809199, 0.350951482120189, -0.24691181169516424, -0.4639587862378442, 0.5274875547224273, -0.3823980324220457, 0.6364666003784644, 0.623508015189899, -0.03814187742774626, -0.1718349442956218, -0.733573932648884, -0.2748952037618554, 0.4067084704390126, 0.015431696487662835, -0.22820375098970092, -0.33925230383702737, 0.19165261442651008, -0.22028179995659536, 0.2684769606390794, -0.29458552214437983, 0.7685839870067946, -0.16989283573748928, -1.0112452575411357, 0.12916782957481063
-0.23858467942172354, -0.23674347345522576, 0.3401550506792253, -0.5049536844979662, -0.03626966064069059, -0.111555619781723, -0.16967654657598955, -0.028321247406401826, -0.13342522163941697, -0.17558041853919, -0.38712347534026526, 0.1890057289060059, -0.422547413813636, -0.5825415161567722, 0.11700565804879187, -0.21856166039222372, 0.09796191331657335, 0.16663439117293127, 0.09150507956004937, -0.2768425989748037, -0.22837858680952255, -0.3107550172052309, -0.7720838332592593, 0.19501539176132657, 0.22668535656373082, 0.32048229516165494, -0.42190682621412, -0.09419834258152658, 0.17438794748796313, 0.3892468085443503, 0.11332319865130894, -0.2661279867059896, 0.3388343644863963, -0.05478203102719848, 0.4372076129322642
-0.3765771307558336, 0.47387121335139004, -0.11713035633596439, 0.006890390008352211, -0.0033853751510873236, -0.39844964653278714, -0.13209641709917996, 0.11853329100287137, 0.17882013510210576, 0.23055193122100973, 0.307732303346478, -0.25053905040634594, 0.3975324036629795, 0.5894289781010185, 0.07233571128529048, -0.3384435625265422, -0.25808343437201875, -0.026492390522462207, -0.697360662284555, -0.2682650109333713, -0.13759870189152856, -0.25337084109780017, 0.11970185739881282, -0.6503594687099026, 0.16084650048702195, -0.1687630476399824, -0.12807578974191758, 0.06643337421373097, -0.046952327903560194, 0.4514806992277641, 0.17170497407309945, -0.3290846496736623, -0.6704528540779576, 0.2984597000347966, 0.13051883232071948
-0.11068181405168159, -0.47920239061442205, 0.1485598520454261, 0.04373649292334963, -0.373837354318379, 0.21748509349313305, 0.1716763606636084, -0.12960891524817073, -0.11699364698118923, 0.3093731313467758, -0.378661197435779, 0.38259615123215995, -0.27052459663402983, -0.3231625296774738, 0.0752801457478733, -0.06835709494198526, 0.47401759786495146, 0.27824285004013516, -0.2412011000973456, -0.2251445688321949, -0.3672893100040613, 0.14521409491522796, -0.1057611987365337, -0.13749810836562218, 0.2512940149476002, 0.026358234129156756, -0.24773072024650392, 0.19689752539252822, -0.15953276187884435, 0.38666145702178095, -0.4751801690616002, -0.033751184049013463, 0.2546512557515534, 0.1332255572946977, 0.5190837078016567
-0.4032750295046915, 0.060158211605767634, 0.02673444144757622, -0.15397169708932407, -0.378703878872169, 0.11166084953170703, -6.299008751499173E-4, 0.2000182029909715, 0.45163936516668257, 0.07131329448623745, -0.10060448173241388, -0.3277881194555073, -0.26328684958502074, 0.3096807540784502, 0.2345918995288456, -0.13082665327187323, 0.0041708332547699045, 0.10980005855174052, 0.14389250404115778, 0.12791637159741862, -0.5663443039899286, 0.3712918388805109, -0.25586744789858723, -0.14351676239700945, 0.36182932565642123, -0.4748848529943955, -0.2922147149961488, -0.2535768040261595, 0.097973349470063, -0.29851511794924146, 0.23364591994926348, -0.1309950734655777, -0.2870783372766643, -0.3421684813238948, 0.5078918528137678
0.17806180768967944, 0.3603643238605782, -0.5408565323921484, -0.0870834990118698, 0.2107446498333466, -0.40999948343820536, 0.4085448942066006, 0.29783352233983834, -0.1008511517478264, 0.021863246257249672, 0.21196229338286243, -0.15839140666141402, 0.2817888559355518, 0.16925024917090312, -0.4355550208277428, 0.4259433078484544, -0.006356534218072796, 0.5607479421265001, 0.0783338802058163, 0.3384861480339946, -0.6008488861103273, 0.22459429845390466, -0.014391530999316775, 0.49283045908199347, 0.4661814473915372, -0.35487409501293293, -0.3976022878498593, -0.2675782079182113, -0.1563810001304568, 0.04060038860429916, -0.030666481055440977, 0.1950689917078152, -0.5090233597141657, -0.6814080171703615, 0.04830979083069568
0.5350855982319717, 0.19877780913519022, 0.3052326250480982, 0.23818907869591682, -0.17953721927886432, -0.310939076945322, -0.4386661674287578, 0.1700613680682979, -0.142890189446457, -0.3702553225910132, 0.08561646313574008, -0.06848758482891938, -0.3958008223815247, -0.5061008867955424, -0.4074296334869152, 0.44168349056874445, -0.09083625508603918, 0.6223029793552121, 0.684333105521482, 0.1429414620042395, 0.2988805224684035, -0.5107535274487921, -0.7442295417904355, 0.5148732392412921, 0.1684221539572238, 0.04074592557497393, -0.10262401332408129, -0.19412648280602118, -0.13029200202823232, 0.4753450529127805, -0.360942072553074, -0.24763860660044773, 0.16122545515841047, -0.9392327835602609, -0.3307695574301628
-0.34558150722053255, -0.39464142456860773, -0.32033113070060926, 0.3708617268609669, -0.06894890896087229, 0.34660551622221564, -0.3852016742134909, 0.19918267929609748, 0.041184624543690554, 0.4217855016733169, 0.4326553656167994, -0.29569084573868065, 0.38293411612975115, -0.2589757073584144, 0.18748879959865178, 0.04986210060050294, 0.2278642975261266, -0.19300745515977993, -0.6553768981907369, 0.3016008856267988, 0.13022687394183388, 0.11351333415504135, 0.0922902676627511, -0.45777446937895605, 0.43030523634726087, -0.3101009102638008, 0.015549300919356482, -0.32153893687926527, -0.4223540706697782, 0.1484539749902194, -0.04600961624058518, -0.27051636847957455, -0.12981170240934317, 0.41731384186140424, 0.48978726729446925
0.3396230887064144, -0.15579233847187704, 0.2292078942043262, -0.3268553012176969, 0.2687510615801981, 0.05440462242879009, 0.0734114512742517, 0.6778956975319501, 0.3956962185559471, -0.08112318965357945, 0.18567586256803711, -0.28106133973389097, 0.5470765879229273, 0.1440528084314218, 0.05386076872284082, 0.22955917586455754, -0.23046548084817955, 0.02829615727949276, 0.7609698063951704, 0.40990369417641237, -0.10368454783702014, 0.37569080094395885, 0.3561732071655329, 0.3706119479432288, 0.8465904928572741, 0.055987057895144174, -0.07897420475659528, -0.15746133753706484, -0.23793798466706625, 0.47550507238291684, -0.17759789284870228, -0.6866151680223944, -0.33598322238814815, -0.692701094829678, -0.3465564478269406
0.5219601278492445, -0.5489649075594907, 0.5943486219878489, 0.23853197634590026, -0.3687164455682318, -0.07179419903079406, 0.1033771870808886, 0.596468808220904, 0.13883820246660758, 0.01193760284582956, 0.18564982439395272, -0.33121068913550966, -0.4746150126679887, -0.3513017745290862, -0.3070398632609291, 0.11419488811955836, -0.36250047149293835, 0.5084438662494264, 0.501985827775421, 0.31656651852442413, 0.10838425038158789, 0.27748151376955027, -0.2913686601516616, 0.4866968432091223, 0.7768935697786075, 0.1710538231022354, -0.09208077716374603, -0.2679520872897741, 0.0708711980664669, 0.4642584692069596, -0.7280888468339549, -0.5210134614407564, 0.31577044539650745, -0.4524189435905818, -0.21257125899430768
0.12406381488439922, 0.31464622657539854, 0.01269118745695091, 0.08257530444088941, -0.21112240834248844, -0.35052928010877826, 0.1339167318402428, 0.414961535830331, 0.4633289640337202, -0.28811199756175493, 0.4439974636635887, -0.15199730154601068, 0.3435992005223802, 0.20308913120405825, -0.3199894359561983, -0.31079742869929194, -0.4046986569558467, -0.1302585531451178, 0.5088846722929924, -0.036020841017240575, -0.26864385928917717, -0.24937833373931764, 0.19458993384503898, -0.10522222455647509, 0.23397443220161743, 0.11569060556641127, -0.38469068561870534, 0.026594925812985518, -0.3833445106877148, 0.22326613305599405, -0.2378045834132167, -0.5449658973196688, -0.09186779936241059, -0.5153981742685839, -0.17569121365164025
0.21804695491032317, 0.022437324478427983, 0.03547990444943085, -0.3429482525384537, 0.26373031004350383, -0.27901517549005606, 0.1653811193399983, 0.38207473685094534, 0.39348496750355855, 0.1469353947246723, 0.33372686609836255, -0.011189867235287669, 0.1171532787730244, -0.48806596987392403, 0.03673237635051101, 0.09941981843961374, 0.29823388723184546, -0.18670252936170212, 0.02096606636971682, -0.03427699664031793, -0.0443292383661964, -0.4274632452687041, 0.019145572352269047, -0.30752848360903007, 0.3652524542025247, -0.20078737094175259, 0.26176067364111455, -0.5762853489958664, -0.0744729391391992, 0.13567802086684178, 0.19097287373455696, -0.5173895854481951, 0.16077249604826763, -0.37957477086822433, 0.2183528915267648
0.34968441006550155, 0.3769969798481004, 0.191861195392517, 0.14962239419987167, 0.44122278685076577, 0.33204686865696725, -0.06692420592368549, 0.35931092897023803, 0.2614842908177455, -0.13559691349079037, 0.2343971704155536, 0.33224659322983446, -0.0814478909273218, -0.2563183926240684, 0.24799562425246538, 0.357810025500288, 0.18764198842040905, -0.40440510416206166, 0.3857423594727332, 0.17949931214432288, 0.4369366286314932, -0.04860915789256101, -0.13198287780316859, 0.10933879868699066, 0.5447211137304093, 0.09458075739536743, -0.14735485932782166, 0.15891996690303314, -0.4870202485127657, 0.3226468908617847, -0.16507166121237574, -0.7492125741903375, -0.013908159007632703, -0.06591828439843415, 0.18559197819731071
0.4050899296338931, 0.20638161678385708, 0.04614217605277078, 0.2572883083526685, 0.2592866016038935, -0.40707809354568714, 0.019632650322740558, -0.08863897666083224, 0.17667884112665977, -0.18009810858446748, 0.5122831181610489, -0.19083766348084738, -0.0020676753876902173, 0.10840885122952247, -0.062223323899273736, -0.2728313971906559, -0.07809665367685013, -0.01801619198291884, -0.1650645966509728, -0.16418582179639235, 0.19900605165945004, -0.3896069612517727, 0.16831484577760164, -0.06393213473717886, 0.5101323024150569, 0.1376791853792639, -0.168085600116307, -0.23260421267120537, -0.599147409395127, 9.778178414219067E-4, -0.405636134067549, 0.08699582696548384, -0.5265155560856455, 0.14914638157526047, 0.2313658732146369
0.4032397838626793, -0.23296151798582138, 0.4189458683416267, 0.04656353373325556, 0.13886147061485066, 0.12165915149841774, 0.020448065540787444, -0.16615477478227247, 0.30882438912102556, -0.41662124013524815, 0.46944327992718227, 0.1560109234759243, 0.21372290238287936, -0.10446406236927872, 0.14436755692484995, -0.2909799093138256, -0.42192754265961674, 0.5467531139557125, -0.14012353071908715, -0.1502818027022695, -0.40262793843385575, -0.02533138308019875, 0.06934746247411355, 0.03855750413980262, 0.48008243282168045, 0.11265062561154879, -0.3728083044156565, -0.14153077285749088, -0.25003943046030486, 0.015471381621377985, -0.5262015997116954, 0.05821110263097016, -0.37542267252784556, -0.4765340888572132, -0.02889427580662217
0.09032241653930004, -0.42400220514170817, 0.05913311107129832, 0.3780180719255945, -0.19062796564031206, 0.09954926043319709, 0.48599686164650446, -0.7169813537160966, -0.05508469133315237, 0.3370497848047422, -0.024941269001831908, -0.19042317914223525, 0.13310950924527162, 0.5509874266894239, 0.23601599295720532, -0.4528384074867259, 0.12632537172540284, -0.5658266573759811, -0.2407982463552825, -0.31560944991493317, -0.09945037327488483, -0.5740443569022543, 0.16212853257599041, -0.28082681720903785, 0.16995970758761786, -0.422152944733407, -0.42991660142802407, 0.2691625149547983, -0.04242619373941414, 0.3023528357459656, -0.8297844991182411, 0.2079675829457238, -0.634496937221391, 0.42919378332360547, 0.008353166927310064
0.08167677429898257, -0.2692629064268007, 0.7436460359069414, -0.10126829091474113, 0.06851856674861147, -0.10038406682832139, -0.10620254073039279, -0.4623785278776748, -0.5294346014923007, -0.12365816570842686, -0.36035617755679517, -0.3430902630856851, 0.014406544810198962, -0.31902778202945736, 0.28933683571818564, 0.14353148179811054, 0.017232041396256344, -0.02688857803580645, -0.4324061776380452, -0.007387487142371783, 0.31514578232430257, -0.4632643791019356, -0.09327968992737186, 0.009594531213766863, 0.4429044234517835, -0.17549939956834346, -0.49747864510085205, 0.18367370625460588, 0.07358645401546798, 0.2595840589636832, -0.6694625301071806, 0.14852315116062573, 0.1592068420865174, 0.22718707692037451, 0.44785697108148625
0.23901566021545692, 0.3705749238922813, 0.4974810927807063, 0.12621168659641332, -0.11537018423635989, -0.3544956273494542, -0.14862170225466748, -0.2630314202449129, -0.24368335817491232, -0.08720713374921465, -0.19569283708834392, -0.37154942897146037, 0.4037275951357336, 0.19548636466695082, 0.07106824233324865, 0.20190300935755312, 0.3239960182406398, -0.018781505231326427, -0.4079596243123903, 0.2829775619748776, 0.0749046322906376, -0.6363322990692286, 0.3402803058686051, -0.27195801697726524, 0.18804554623587139, -0.15756728868019873, -0.5087973058237052, 0.08441027058868028, 0.1512596983018945, 0.3196497262519484, -0.40529801781169744, -0.1753251630399884, -0.2999160609353095, 0.3188407254366468, 0.27689213230206194
0.2350178793433271, 0.047306744101469726, -0.10783593313227482, 0.5106619012201646, -0.06117087899287001, 0.387244213483645, 0.2905378150134012, -0.3382859786102731, 0.21412363035204274, 0.02044491889746164, 0.33626330231724505, -0.34433834068469893, 0.0794240420376722, -0.010920007019412566, 0.3867902179657408, -0.1496945042465853, -0.08293711951589888, -0.7265623369597793, -0.706352631280062, -0.060197515720738164, 0.12925292139569564, -0.1912282215121574, -0.0820777312161771, -0.7611475006338443, -0.06047103042789023, -0.20993497040962186, 0.027030585072744206, 0.2682473259201099, -0.25438211595649507, 0.5435776325575078, -0.6215537936916643, -0.13241022701952473, -0.3843922483511548, 0.5722659415144689, 0.27087956280448683
-0.34312514225181456, 0.00644452968370487, -0.5413617746299976, -0.5970649842445638, 0.24877825299221673, 0.4747507555530236, 0.20281687237546578, 0.02667891801099671, 0.36700806990094303, 0.17199998058991314, -0.3674553438350721, -0.4003552655529888, 0.3710236222846636, 0.38392317896159656, -0.3945645746786899, -0.11076827826391601, -0.42101266706271867, 0.1034429422701535, 0.22575410921693057, -0.22082163078135641, -0.47733518523770174, 0.24725076958944817, 0.3091858407926186, -0.25956492051212526, 0.40511498289698317, -0.14709096531836063, -0.06572215531405882, -0.03324674060023568, 0.1555208006393506, 0.6206547468964994, 0.7617862281360321, -0.35058553721558855, -0.12121596801275968, -0.45087205520755774, 0.3185239681678292
0.04863695065758804, -0.08772808829862642, 0.3070494034956995, -0.529622438457379, -0.28709199924303647, 2.387237911516578E-4, -0.4191550860328379, 0.5363536438351806, 0.318051867291083, 0.2924398740535664, -0.14050762361854158, 0.006423278970991178, 0.13824963849423316, -0.2636667869222081, 0.40203340843116103, 0.3739779708641172, -0.1431567756361105, 0.22535228975105367, 0.2455373438504234, 0.37562747533807495, -0.2505025334912869, 0.17714551913340912, -0.15468228290045863, 0.2335221196702765, 0.400705013630932, -0.02214531310678166, -0.36861982856439873, -0.022521059286758436, 0.11742178419653726, 0.37959350972017847, 0.06883049735348276, -0.5816804584303793, -0.13856212707886173, -0.3606771927148052, 0.226033839161797
0.45669767474779704, 0.0700122139320584, 0.5555943526196079, -0.16099080733411142, -0.08607611183092752, -0.12478005079481812, -0.04401621539684756, -0.1732503068198887, -0.4731522238043506, -0.23424747894662626, -0.08742531233159823, -0.2689328348712678, -0.05278801032424696, 0.29655917268021126, 0.3114055217887002, -0.5613781895468205, 0.32085123405539673, -0.4439980603140104, -0.7436663959636731, 0.0795767747173048, 0.2356115147175359, -0.5951026250509985, -0.06179272407284121, -0.4928418390648856, -0.05637378943647807, -0.2074753115835489, -0.33258971490877115, -0.07620889755268366, 0.003443250742045593, 0.26962187605227617, -0.4435744881023517, -0.26338641030141813, -0.4374884851641094, 0.8246866992821783, 0.3864008396525092
0.33722340094737097, -0.1838712070636099, 0.10797812761720664, 0.08384746339437994, 0.08613229410696654, -0.2621642214949786, -0.2907934904875793, -0.021346467898780027, -0.17924716470112442, 0.18601427491138173, 0.27883754732810373, -0.1498787019814363, 0.18748089900312703, -0.21300931426558234, -0.37519217166599433, 0.40356056910725696, -0.10603616793889248, 0.2501561846054303, -0.38157535327027087, 0.1312178421797812, -0.0471438622614785, -0.36907859163835527, -0.18603443862483382, -0.2224025327988539, 0.09564807455259522, -0.22832472462709566, -0.06031653373985773, -0.03819652211452007, 4.395702837722221E-4, 0.1882834253716839, -0.2018944213973566, 0.04388502129583969, -0.05825823200614676, -0.307565965186226, 0.54311052100273
-0.009784265141596573, 0.03904807708927496, 0.3027001422523295, -0.23711448596006604, 0.21570941684836514, 0.1471197106279947, 0.12512574897799694, 0.02685519189925735, 0.07525420197625882, 0.11172106739431806, -0.017715752648089063, 0.1472870976323682, 0.3439135520134233, -0.2944830945590142, 0.3147618755848867, 0.2360250373882348, -0.35149259995294024, 0.23159568123922278, 0.37161064294753804, 0.3409900107833101, -0.09658903138200498, 0.011446160212411537, 0.06924704890825983, 0.38952018328268356, 0.5409716466750968, 0.2814591084071643, 0.20744086572644954, -0.3157596677959013, -0.4262188263816274, 0.3418483520748264, -0.2679473530269481, 0.09200902690972365, 0.09595511861551961, -0.09892299141285585, 0.7341618243712267
-0.12052276247597746, -0.06685551575908684, 0.11811830099004095, 0.6652797058217431, -0.3972182688445504, -0.5927469940223298, 0.2659105847900319, -0.4079278845641425, 0.08334975864073024, -0.013917977110414658, 0.1875233149296585, -0.34087763262088633, 0.4296520213358179, -0.3380155060225594, -0.2243012775112564, -0.16281853852661818, 0.4171815256641957, 0.1294355176402829, -0.06364689239774998, 0.015241501387045078, 0.49928568245183574, -0.4753990642388458, 0.05391898351530412, -0.31435705366950906, 0.5051568296654483, -0.09306225236028107, 0.19336143976451525, -0.32338488323323383, -0.39393259634612776, 0.25461500966149525, -0.3739185510543997, 0.3994987260489625, -0.23282852030394358, -0.09466517007233385, 0.2557324734146451
0.1664430164133428, -0.5391957015635691, -0.30011868306682254, -0.2845565698819442, -0.251960609536094, -0.2800675598938391, -0.29557761037702696, 0.5347576262315638, 0.5357146226713971, 0.07634591654265332, -0.1751353458406063, -0.13975582509714551, -0.587781553546507, -0.1020553672961175, -0.4303849021773192, 0.16509181441745985, -0.17596924871844544, -0.2547523331597929, 0.09666857391005863, -0.03230390806854834, -0.4991606033407968, 0.17277473391869486, -0.5190539059016777, 0.08244693063570156, 0.20788340004203212, 0.264284149570756, -0.11114022031706898, -0.21829932826501997, -0.14131922653009654, 0.38421815845782, -0.27448456342246025, -0.5567859118614202, 0.1710241745128601, -0.05601982027084943, 0.06283691072498318
0.08873241354431474, 0.2308793735197825, -0.1860559593859725, -0.5519334698342792, 0.2725952343748169, 0.38938547385610917, -0.07878975802742426, 0.09896516212041516, 0.10298460538401351, -0.20511334090574143, -0.13301244498765064, 0.01832880026182727, 0.5400605577730527, -0.028941390207967155, -0.056546819616990415, -0.06890821973446079, 0.3832495035004077, -0.04224469892571944, -0.5691565102374483, 0.34131876050645693, -0.4653910997583988, -0.17565623554483198, 0.21101731392137105, -0.4892545329598643, 0.20379419736117135, -0.6152358532729557, 0.0474091092854231, 0.24239676973207588, -0.13240362596936775, 0.5556827954757878, 0.24696085435887516, -0.36346429642815825, -0.2527321510532531, 0.11409269862903235, 0.08374821479688321
0.3900313999175043, 0.2860820252160131, 0.042154795489521536, 0.4323955794204334, 0.27112605149218494, 0.26387906958455937, 0.014210726496474754, 0.5049618398465666, 0.29840696278687506, -0.18819880411495715, -0.3803149182355878, -0.10754912617662102, -0.33698996317007673, 0.06197966728139055, -0.15462920523190218, 0.0641739930160101, 0.17391470420425742, -0.04400513146577978, -0.368532027347374, -0.14331554877043573, -0.16223069938695808, 0.2904586603515523, -0.41061244851846, -0.3862220907155856, 0.20565992739266714, -0.35977589479910427, -0.16454641208558468, 0.042285913352565485, -0.2305767652425794, 0.16012501777192018, -0.6268714318702782, -0.420677069536346, 0.07774488287929535, 0.056565097378633154, 0.15176500460187312
-0.16187267956806217, 0.18210487054666785, 0.38796597957131845, 0.35207797646944483, 0.09868753366101858, 0.473551397310599, -0.4845063208275182, 0.4642780635575856, -0.08466429338064574, 0.3228552533014017, -0.38567975224359013, -0.30385636148213807, 0.09979437741637848, -0.16775712307756802, 0.3962996954241832, -0.04145578901177451, 0.4028631691856104, -0.07204950091788782, -0.0038690636919775406, 0.13521920973873933, 0.46718460236107234, -0.05099562011866485, -0.34993950552257014, -0.27000940137750484, 0.5703833846276288, -0.43275855167113453, -0.2614307672315573, -0.3752859120288566, -0.10732581030072234, 0.025164766606709243, -0.26322850858327085, -0.7665208621956664, 0.11479326878219784, 0.1180782595448517, 0.08750842998730946
0.2942826557790977, 0.3730253712367443, -0.007181446898280489, 0.281162483343056, -0.344897320341779, -0.0040482039831463, -0.4611584314666526, -0.1681163836186528, -0.15327718256976325, -0.2624299842196908, 0.3854668750776565, -0.17429931311269306, 0.46647362197653125, 0.6943172845149829, -0.17963936915120365, -0.05948349741322428, 0.3329163675606423, 0.13514007105807696, 0.04609804068831198, -0.07515396867115662, 0.3749966492581438, -0.5691346098964258, 0.6270019745449247, -0.4237264528346979, 0.42699550155253213, -0.18553910040191315, 0.20234764193553403, -0.18791903752113526, -0.6188667317122587, 0.14173123687873596, 0.04481810056368591, -0.0996689180505039, -0.5277814674731254, -0.3136562294517966, 0.14095117540813457
-0.43437517807611975, 0.06838775161239219, 0.3369539082555628, -0.19270626221544748, 0.2461728355054637, 0.07069144493184347, -0.3615106796138826, -0.2569237626191538, -0.23450332189132916, -0.2477716579514873, 0.1154043376907672, 0.10017725322230163, -0.39553500692416615, -0.393811781228156, 0.40555994826809716, 0.13385043216009426, -0.060345979374892916, -0.2376574899164834, -0.30148248181426934, 0.07962611661124464, 3.088291152354005E-4, -0.25745134701620814, -0.4217061501922032, -0.1658791479394754, 0.034218255967117826, -0.33129004863143335, -0.5064782359030559, -0.22663393897936152, -0.19620308327688288, 0.24638256015794358, 0.0408175384438267, -0.1985451605728345, -0.04426792080627567, 0.14876225195666634, 0.28535901957640286
0.4941037452277985, 0.08688566697584255, 0.42743830255947424, 0.24497596031929197, -0.1383275572456671, -0.5118841216595198, -0.2203504368258379, -0.4413276106975371, -0.02665466849936429, -0.3043865033555263, -0.030868734226880974, 0.17295607495818913, 0.2339308402595924, 0.2453950456199653, -0.23027675421333949, 0.5454938739131515, 0.101749427006683, 0.38562313659248726, 0.4911199662548535, 0.06817610900810393, -0.08566364474823263, -0.1425754067567312, -0.19209182108910383, 0.2032597177107275, 0.4246967306507031, -0.17819625247855153, -0.20963218627461144, -0.055915388446042005, -0.19662690913701047, 0.22583752200138493, -0.6781098803521707, 0.6492111518875255, -0.2709238057019172, -0.6188526916341578, 0.08454617573385743
