-0.22729154264064022, -0.1841042503821091, -0.654232977365002, -0.33726789711546745, 0.02067038128226351, 0.1820762393621771, -0.1787908548352782, -0.3725139536400893, 0.03169893010762122, -0.18339483797320558, 0.06228086214794099, 0.07978453164399846, -0.29156106013620275, -0.26055349928985244, -0.3861125453651764, 0.09355236870710999, -0.1030996293291161, 0.2159334591427835, 0.6596811233194946, 0.37875826990306904, -0.813187671389237, -0.318239079723569, -0.07215403548755403, 0.3260254646126332, -0.10148981331849687, -0.23437355938799662, 0.30630522683990213, -0.5575422683830398, -0.4851061028407876, 0.10763457038198442, 0.46894325360501943, 0.020346904973379026, 0.08215158121358543, -0.6095153574817783, 0.6300837960996449
0.1404114936995687, 0.31824296352419235, 0.5135840850750945, -0.1859911652385993, 0.24103677427385467, -0.19637643347553702, -0.3313577983010341, 0.019465570782402276, -0.6177428243948629, -0.003578237824749101, 0.29795751023148287, -0.35251784677344694, 0.37703075189266744, 0.19030626390540242, -0.31984319911774123, -0.06368457450794879, 0.21584095251921395, 0.1701243800061148, 0.09212288376990209, -0.13765001945363362, 0.23585247866152861, -0.5578961734160396, 0.020464401476573732, -0.23558682542202222, 0.1535950423387268, -0.02236057031819453, -0.16331741908357278, -0.22043376451412117, -0.2229040158908545, 0.2389792635037232, -0.2180416115265111, 0.10318916056359935, -0.6467629556530989, -0.5298895391448736, -0.12185122796134844
0.2471175988407477, -0.4687099910651932, -0.11350341528768343, 0.5914482135738538, -0.377582397396866, 0.20733107820108862, 0.07302847961917515, 0.25791928289980354, -0.002361274497371375, -0.009643372168446974, -0.06903260907010395, 0.2696999354022388, 0.42977606309640154, 0.09014554863857824, -0.14000400435750687, 0.26496488350006697, 0.17546226820859429, -0.34645410034089236, -0.29542014965924224, 0.10780275779838722, 0.30394168687703516, 0.03647174791329601, 0.13033449041365652, -0.09083117334613172, 0.6133147926037859, -0.02299132138409107, -0.06162190220659912, 0.09158988903433457, -0.33586427139559843, 0.21646421028267407, -0.4739859199634, -0.3770000242657862, -0.24712511302212753, 0.2805821673659138, 0.38270524478005563
-0.3111004631391623, -0.4050950718123144, 0.41875278898170504, 0.10455836870927673, -0.00874981057293122, -0.4926626452580264, 0.23491093991402326, -0.6610910058824014, -0.34831099654273645, 0.043472079810494536, 0.485166901297109, -0.27606211845641176, 0.5405471758694885, 0.23483565025352907, 0.14939556072507318, 0.30970440096545654, -0.26376670273782055, 0.3836142240597966, -0.3627177724235534, -0.3877670449923238, -0.19008006868939267, -0.6399051533250347, 0.2365751192194545, -0.34877367971215345, -0.09660768655395532, 0.31811746055207507, -0.4333805826057234, 0.033872980924942016, -0.42067835585294955, 0.2703372731394146, -0.4324642783698346, 0.6986414356926683, -0.7384317955671554, -0.38544032540674494, 0.12374028131416492
-0.2916816579848873, -0.2729498696093511, -0.30988980477167144, -0.19872458429270348, 0.1066266606781845, -0.3250863414648015, -0.3672932588614259, -0.18058457588849752, -0.021107169639808892, -0.0862593498315554, -0.310416313614646, -0.3931070278907615, 0.5214062133341615, -0.2812585277549795, -0.30546821523158946, 0.33972615347475, -0.2299287462725123, 0.3155714651310655, -0.3600049968533863, 0.1970549411189591, 0.11483597056780527, -0.38784370022033265, -0.1219028949803343, 0.19341873196943557, 0.3742084212315452, 0.2625676350476465, -0.37405219940773554, -0.06994328829634876, -0.37055210228438085, 0.2225892948823612, 0.21718249528585465, -0.4927782731718884, -0.47368896818986095, 0.002941780805914415, 0.1803795508095125
-0.027918764069918424, -0.32271957149856584, -0.41175547154268644, -0.551060398420827, 0.17174136120658834, -0.11942244550377513, -0.06179573354804699, 0.34954491408344435, 0.3305168966518288, -0.3543924713387964, 0.42614784594227184, -0.35300006201717593, 0.02261156091222807, 0.16731327062322843, 0.17731964792248767, -0.3889682932686995, -0.08391587707326967, 0.028803518863112807, -0.2816672460830909, -0.061721335140727744, -0.8153004590318083, 0.2099828466423524, 0.20108371018316867, -0.608757080949618, -0.022399238025376328, -0.28587309757218515, 0.15984966567005277, -0.42464445141892243, -0.16144723452047866, 0.21954251814364428, -0.058152420296881904, -0.3431027873226285, -0.19683912372525578, -0.05222445602880593, 0.23950204583398482
-0.029745308362446016, 0.4066275114154399, -0.3502134162023783, 0.025003106895483896, 0.4312355362242035, 0.08521231370507353, 0.257010154433158, -0.17393648292119826, 0.4501323884234964, 0.2803074038575329, 0.03536843796850885, -0.26374880796617894, -0.49862026358884665, -0.2598833490558194, 0.3210450584156246, 0.39258064557940936, 0.06106877453732939, -0.16988653152108854, 0.0609240061791347, -0.30846871227614986, 0.027747549850001503, -0.20367631657492705, -0.35255753298528525, -0.024617387516590608, 0.25785348105573774, 0.08584364485489, 0.16647930427278088, -0.47276210017576786, 0.09107764058573042, 0.46184334687446826, 0.2765685530450463, -0.6316567945213867, 0.2550809768907675, -0.38014351584819783, 0.33794331624033686
-0.20907603518063286, 0.36115568057595937, 0.36665339832894006, 0.2584997032595296, -0.3492616427041778, 0.3630930597390096, 0.22396084401675448, 0.12037014352481323, -0.26996776880449497, 0.42858451300001704, -0.1580453039533417, -0.11358858675242964, -0.059536254055703265, 0.541045328702626, 0.04556324534930078, -0.015923841657755834, 0.4501258622336351, -0.005239036335433042, -0.585843829398171, 0.28320092728182866, 0.039081528568241035, 0.026648752661292973, 0.18004159289265567, -0.4822763051343057, 0.3914942852909209, -0.3524581964116607, 0.06228815282072466, -0.29291313400477814, -0.3986723963578567, 0.022574101853616777, -0.44566161413305533, 0.13908225777430966, -0.3137914865159266, 0.12738489912383943, 0.3078559755228132
0.03223979777465626, 0.19887822170969185, -0.5225269766055163, -0.6691229203644153, 0.30260551350212606, 0.3337750787088382, -0.13155849833098304, -0.12332659546360288, 0.6492684013180996, 0.02839575900401321, 0.06258594957793352, 0.015419845974249228, 0.5002672264270029, 0.2718545666299268, -0.3277839715154938, 0.20736778728155475, 0.3785277952248276, 0.015198654577825096, 0.35440221742535594, 0.2712433935043814, -0.8250721626380397, 0.0890675813030159, -0.3578974043197814, 0.35898579500274824, 0.28043210302211374, -0.5535470001889093, 0.31291946927760905, 0.07928861019690393, -0.451583990080223, 0.25814830430213287, 0.20707241888444408, -0.5364222373592117, -0.7182020106910942, 0.10139109078397758, -0.11306167243366651
0.37108217907120206, -0.02865927409819541, 0.007137402938287386, 0.12818745668526296, -0.28676129972772857, -0.32234615826193835, 0.1041550399988333, 0.32865818655544615, -0.07589815406796777, 0.05143963106914514, 0.44422333940397113, -0.1788911058515543, 0.7289333023404734, 0.38615696767828706, -0.35458920093081825, -0.254987053693417, 0.26810137805221873, 0.345426608959527, -0.18022283127018743, 0.21288005864847473, 0.37075277775008036, -0.43257516462580387, 0.5358354008146723, -0.17062920241376028, 0.6097169334051008, -0.267658336390086, -0.37052814774552395, -0.11639276744142926, -0.608053446316845, -0.05694388254073773, -0.17528929409072516, -0.36200564404661456, -0.7564388761935424, -0.21824180092704681, -0.2218569062208339
0.05863259221344446, -0.30549308380432605, 0.20072265450010532, -0.4984878148738243, 0.21369673995920915, 0.494424637235594, -0.28359712879499793, 0.2276585267837387, 0.20025767390827848, 0.06844892982479582, -0.4974764659315905, 0.48552049955794324, -0.3040227776971188, 0.15767287835473148, 0.1477049778810713, 0.27861601589479756, 0.11493774313132087, -0.34309618202118575, -0.1368081244846432, 0.33327939521413946, -0.47512096862386766, 0.12313736637011422, -0.3346370313432324, 0.004363192311270913, 0.18667045924405234, -0.1992562313834151, 0.313232249453564, -0.05363237201462327, -0.21381856771896812, 0.4724547015455453, -0.04223282548329714, -0.5136828242402067, 0.293928632964727, 0.20392910149719792, 0.521165859006187
-0.2017278552477388, 0.45467627140691885, -0.2526705367877366, -0.3329404382986, 0.35023063458403086, -0.26486908053942504, 0.1465121255384708, 0.09562107931880956, 0.12206301394374011, -0.15505121205315953, 0.23436757979334935, -0.3795868962746322, 0.4069082359362329, 0.5297155319049269, -0.3369570897877676, -0.35533126907647267, 0.23785243069825737, -0.4136362389695118, 0.030706848589121843, 0.15962058004323468, -0.6678460571105996, -0.0951572194313055, 0.1775010117538925, -0.41430888915560987, 0.05364835645024149, -0.08252378077861681, -0.3806881372690203, 0.07737129452133476, -0.011470545612388638, 0.44454118025962114, 0.4011179229713426, -0.1157776928613983, -0.9300190427135061, 0.3101690735134471, 0.16515810414374588
0.00918644936260878, -0.1556980845947025, 0.019665571737481295, -0.2744868942905721, -0.12826596349177563, 0.026156342026840283, 0.04545823971564407, -0.6681394110233305, -0.1445427385397868, -0.3088540871219821, 0.2706380763414557, -0.1650721887744038, -0.27003212381910663, -0.4140564590440559, -0.26633868450356585, 0.3176328849652174, -0.4511712919429155, 0.08797550926429798, 0.4403878954878673, 0.0835371341165346, -0.05179098745334485, -0.6449077575310881, -0.5964430699148329, -0.13665976401759594, -0.1532771033119802, -0.40815844944369395, 0.1855243953909361, -0.5821341678503508, -0.20921301818234112, 0.16105170063805027, 0.09964300066390112, 0.2637426657805161, -0.09044656279248, -0.6013091985241708, 0.14234290882087508
0.32847534068344797, -0.09619661226759743, 0.2286774023875307, -0.08241484644478728, 0.11533096280620259, -0.3084884377386018, -0.3430290199827811, -0.278304365201195, 0.05099094736947125, -0.1081566501423259, 0.21080559624074055, 0.3750292129125398, -0.33827445634349196, 0.23162706887171058, -0.1387200168368387, -0.2756884346730661, 0.054796890960350404, 0.2745606321791039, 0.16270995660426354, -0.07991011963668794, 0.03457978136472581, -0.25179792186612465, -0.3848298865960589, 0.26348904748813357, 0.2954231706966803, -0.3304453012001519, 0.18947945596420301, -0.1312831405621882, -0.1486099190672653, 0.2612336530256453, -0.4128098843793527, 0.13841912571215545, -0.4062208572608285, -0.037594993200260614, 0.35638716699957945
-0.425949924094577, 0.518858304799021, -0.5088712976320772, -0.29719650419107585, 0.10923325984659145, -0.21727258410696643, -0.10807890455172664, 0.4154080324537658, 0.18680668364592945, -0.1113939725287134, -0.008161038022512081, 0.23072268385758055, 0.04955521319341728, 0.39031767348814306, 0.35816866160412764, -0.061467499891566746, 0.49393228820109775, 0.11903394153920165, 0.12979858526335292, -0.2841984697748146, -0.5885066369646006, 0.029316526297630006, -0.04106082698964165, 0.45363535949723716, 0.4955103048547338, -0.5816117869432176, -0.19458940743302416, -0.2462524307705188, -0.21614938183926916, -0.008875632812125094, 0.3005806759353936, -0.4589836702022182, -0.5442540497421536, 0.27184132455772325, 0.29265308980750937
-0.2574587842651515, 0.06850897238155186, -0.4265146868504138, -0.32104110689134685, -0.13967281679418933, 0.1492396914023087, 0.39559003960314987, -0.7037552781691543, -0.7694358974587449, 0.28300181550629383, 0.026283765590118045, -0.12056338834030497, 0.005071600941534438, 0.11137157241561572, -4.885329814136251E-4, 0.37531260381085074, 0.27101246219402525, 0.37305593085123, -0.1785768963649299, 0.2559163485824635, -0.41003418328374036, -0.4480483301618931, -0.014807682781116596, 0.03478089539425602, 0.21900772417168138, -0.4123552649912348, -0.24635480124825185, 0.344823172321622, -0.16827157651404534, 0.3234969991511574, -0.01515622632068099, 0.793514225945477, -0.4304405428918393, -0.23943773751718445, 0.39644270143357196
0.18760400879351694, 0.04540621373682264, -0.3958323078861456, -0.05439420195120937, -0.18398124666007698, 0.33076787268084623, -0.3027661139360091, -0.12697409481083607, -0.10896626080900615, -0.004147304064157813, 0.5630174549782277, 0.31792735243411757, 0.6139585181707297, 0.1689644917683797, -0.2314289767710857, 0.16510111458377158, -0.3963807576404039, -0.5082196505096275, -6.72734243288748E-4, 0.12761705067510223, -0.13130532242971613, 0.18394188660355787, 0.4450555234233773, -0.6667494439985098, 0.4614519549293966, -0.15009699180864777, -0.24143751156050783, -0.03962258082519916, 0.042205032538657115, 0.2057801408694086, 0.13208060664005086, 0.036521207882379794, -0.45011683951748926, -0.15823254722935923, 0.43832646738814324
-0.17198023263785925, -0.4863164579475201, 0.720800726902932, 0.6652412383675975, 0.3508233549780609, -0.17616367571153868, 0.27084519373601257, -0.37143132431967546, 0.2286084875495155, -0.0369206158291893, 0.17539320661505864, -0.17187953467737693, -0.2453147129066766, 0.1852348258233185, 0.33033274107163624, 0.1508076043069139, -0.37859278796739354, -0.017510380375069776, -0.10193085195249638, -0.20045769865089139, 0.571261210070543, -0.17970314159579792, -0.13004077025817093, -0.14726952420351996, 0.3132042209182495, -0.1170268211770277, -0.3632684911050383, -0.48247381881337537, 0.20941176774872947, 0.43357611667629037, -0.6784134507061907, 0.22025007374957953, -0.43087827276509305, -0.1349788721872043, 0.11485279499784874
-0.39428540945854545, 0.17845817372308329, 0.09745482213745646, -0.2999099650166145, -0.04692850431435487, 0.5996256367517242, -0.40180469317863576, 0.5336311446599837, 0.45934319377598964, 0.069064043384462, 0.2325702270924788, 0.3838034812907386, -0.13942055583597152, 0.15459497055926033, 0.08237004559083083, -0.31389923933362196, 0.4020301986354404, 0.20177912782839563, 0.005009338848768848, 0.10827186455216488, -0.12199286352876754, 0.5807270517197286, -0.00623991758204934, -0.011645947959002596, 0.6182718435728949, -0.5633117218880439, 0.21850332165058814, -0.580990073099286, -0.5815823439385404, -0.08518664795785406, 0.10059916320289927, -0.5915402352394172, -0.059893840091674505, 0.16056860374363513, 0.33566430826809013
-0.17468089351503943, 0.22792484931659562, 0.1712855731782939, -0.20842021434126667, -0.19779514439497048, 0.09362415437552332, 0.09311880601231715, -0.4582393411516709, -0.29046355016846265, 0.02564946022648964, 0.008077397769877549, -0.45523417557814283, 0.7321038813618462, 0.4668514131628024, -0.25562302247577734, -0.34627040207554033, -0.048427462695571376, -0.183423763901323, -0.7713877911008391, 0.2810433353366943, -0.21796547248726597, 0.04534400918769963, 0.4424952948308289, -0.6669222571332643, 0.27791797679814545, -0.016889153072209534, 0.23068231314235765, -0.21206632110075813, 0.030286964344522032, 0.5885297458982656, -0.36577575988598304, 0.4465079880407882, -0.8819083077118054, 0.5861546923192521, 0.33374752343818104
0.36790131313565383, -2.7581226945519704E-4, -0.4199550413154185, -0.20077378159144335, -0.23741867284933196, 0.3550826848877434, 0.3911464145526222, -0.04721996874099594, -0.3266814125496822, -0.45379264844090245, -0.32166628730223423, 0.0177443495222794, -0.2583665871856636, 0.17044455793412702, 0.20126165974205915, -0.2667669668157963, 0.1252861846332039, 0.25069866636251636, -0.28342899041713887, 0.19740875835551325, 0.020962627413118398, 0.007095723363351035, -0.6160031663262117, 0.09994879377328633, 0.4551565013761852, 0.06814056548080642, -0.7819239751240146, 0.1451507299665974, 0.17172383385314788, 0.33380929605541915, 0.2243146536206671, -0.1297959939527027, -0.12179051812115366, 0.22987600805752498, 0.42924274751837704
0.008336244605559403, -0.11939166169551071, 0.35605671708066516, -0.24671607036951895, 0.40513093158287466, 0.4874580798859622, -0.2427545232175575, 0.4015310627118791, 0.6819536322149301, -0.24260674385617, 0.16695134912694914, 0.2015356602398047, -0.48135849611577297, -0.4834307955318955, -0.05909984491322401, -0.34054157131842394, 0.09953376608519822, -0.44011021492361435, -0.4349513999289511, -0.03846494126103513, -0.12878823926145, 0.31252502237940694, -0.03774928876989173, -0.7325863347833597, 0.3587989510844116, -0.13780487434275476, 0.14431879204343162, -0.09762341540727354, -0.21388474663287, 0.45883414606919365, -0.10951342486097, -0.9793679355389946, 0.5367770579070468, 0.34778924928460536, 0.22872094200778678
0.051534934153471906, 2.6564117084614382E-5, 0.3316207848828474, 0.2818446348907383, 0.07125600612583016, -0.32941291656199334, 0.15203238073874653, 0.3641224820947113, 0.06514116746224133, 0.28652809762731357, -0.38565697581050334, 0.4569352904629521, -0.5474012690878258, -0.2840151482583405, 0.10091906728968782, 0.3348927546069005, -0.3514026480346858, 0.2892393931407871, 0.607074253175446, 0.2845153686336461, -0.09690673084116336, -0.022188463422113305, -0.5682775432262726, 0.3272243478675021, 0.32570209010097834, -0.44229800461675184, 0.19042897971021083, -0.19829114148109758, 0.30830653963409776, 0.4363248789123816, -0.5734775601235501, 0.012887868675646867, 0.6777442129900043, -0.5267442956005756, 0.35085061226059594
0.007972897174087959, -0.28541629219933473, -0.25644678275303867, 0.2718397478712301, 0.40150832535578096, 0.029257219104647753, -0.3753434305386666, -0.03781073080967199, -0.12144066799010975, -0.2559364787353918, -0.48216732671386336, -0.3266396451818514, -0.28945577761973923, -0.5819988958833683, 0.12276630177403357, 0.45218142953846124, 0.3115637132902701, 0.06799519016499418, 0.3728312526668569, 0.014225107445663509, -0.21905849999578522, -0.31102393688746166, -0.8529482842761585, -0.12257492194694189, -0.2924827482487565, -0.17188511753957064, -0.2542312834536195, -0.1985489710444255, 0.10896364937836252, 0.2387811756779088, -0.2165038972049673, -0.14280665547469137, -0.01941602536594048, -0.5251138410018317, 0.2188593798523526
0.34800844696786487, 0.03577708494532955, 0.01730105419518241, -0.24998904079629078, 0.009391220974376946, -0.07311195120831622, 0.1641666228518813, -0.195621842941908, 0.2925768606245459, 0.2922210338394363, 0.2531698211979405, -0.45479983370401433, 0.6662504551989056, 0.16347748101860138, 0.07281226787739574, -0.17527594867049362, -0.16940197993481512, -0.8202361180082625, -0.6903555073683583, -0.15930672583154495, 0.09585632104932695, -0.4140494146323311, 0.10463320913739468, -0.9187125408936905, -0.13248681937635914, -0.17337311426286833, 0.18927297469240478, -0.48053369152276015, 0.004143101244550284, 0.5079423326550272, 0.15992846330922925, -0.30404346226768125, -0.9088750120618657, 0.7723430367542297, 0.33082599461310935
-0.4956486200444604, 0.4040410009294556, -0.41156057653668626, -0.43927915150430286, -0.10726690470244829, -0.18938006089221476, 0.08114606073672616, 0.22828648274310012, 0.12965754982604852, 0.3907581982715898, 0.016777924025384177, 0.5010063071248019, -0.24884209616038178, -0.0769442977429193, -0.37001806885186983, 0.590913492187859, -0.08279333080249486, 0.5445558710342154, 0.5620993553574392, -0.0734854539980847, -0.28943184605024436, 0.23994187679499654, -0.4188301314482696, 0.7404526824481721, 0.4607264502581369, 0.07540039558715811, -0.1894439291643289, -0.5858097821067288, -0.24163719946356288, 0.18013869049964826, 0.5895382675223155, 0.07624986523436546, 0.21463022902653447, -0.5758902458173538, 0.663804004377826
-0.2709328664694443, 0.20571916845873175, -0.3920505054931562, -0.02297196500568392, -0.040690269215315496, 0.0215568413834262, 0.3611170227875688, 0.20148363434472197, -0.11668821668875655, 0.004772894012058951, 0.2412980270626144, 0.1498855141548165, 0.07593715518496434, 0.34081715208147745, -0.16801560031925938, -0.20889484326965607, 0.42019397293139943, 0.026010460929680707, 0.1407750770007727, -0.3762802917376048, -0.6674972128743198, 0.08223853923701271, 0.09723639314107682, -0.3946400198468841, -0.01689803544011083, 0.09121262089193799, -0.5622320039003416, -0.3042790748711609, -0.335655226851449, -0.033183776684033064, -0.19940046005189027, -0.2292767245942621, -0.3269073244148471, -0.2839665014131413, 0.05803236082745319
0.3718472991364441, -0.06682903198469607, 0.4691061721673627, 0.5596708425820663, -0.42713325776336014, 0.18422755036381286, 0.22599820067924575, 0.17477248891952454, 0.2468259045735041, 0.2210796892272622, 0.21748613351916407, 0.3270874616019455, -0.010312144452595387, -0.03351122108238268, 0.21779162561950008, -0.006263672819786262, 0.18419338232154528, -0.2283590218418936, -0.00590355708968571, 0.44326681634395104, 0.21950789037871318, 0.009707981342765768, -0.13291420067368212, -0.1356923388834391, 0.3409194559300971, -0.5877954409128746, 0.11936707552056612, -0.42118331902870393, 0.20163710141483118, 0.10129988701063197, -0.9397826100108325, -0.35584446385828417, -0.4013410342034634, 0.15951582073917683, -0.07675367928605747
-0.24633976650390998, -0.08604556408378963, -0.1817002771691261, -0.3632017382930416, 0.19017761749033904, -0.1304292622255844, -0.395155378281001, 0.2532515578153905, 0.5674039845659677, 0.35738980768611783, 0.0968840655649279, -0.33289958481336795, 0.012108800844368548, 0.4207686154308717, -0.10053574646972883, 0.14373540771026225, -0.28465681900016504, 0.3470118914234825, 0.10611715433916016, -0.1512240980099909, -0.5949844923267481, 0.03487896818239171, 0.021202956148429673, -0.06384173312099391, 0.3244675129302533, -0.4192175858649984, -0.30509180713961737, 0.06366705354690892, 0.035899618602792574, 0.19286498241504546, 0.35741367178061795, -0.7539700770973367, -0.2378961591756671, -0.118348998400269, 0.17399135811246363
0.23727026372673754, -0.23222349288620844, 0.27405257654519327, 0.116747829025646, 0.07063134017927186, -0.24445963457616113, 0.29486377932658187, -0.14295674320808058, -0.47182806579579867, 0.06860800378350025, 0.11221461542682515, 0.3315917395654774, -0.022082768043454857, -0.46818872505216946, -0.13201136908984118, -0.2753426396598571, -0.018173200299793017, 0.17265130883312144, -0.2466468260256938, 0.4314053346715442, -0.054844935474753956, -0.28564182317928233, -0.47780857714766134, -0.4265863088737498, 0.01396394271492018, -0.25940246515950066, 0.05594982189842504, -0.44772737321828604, 0.2262385978419469, 0.23936940856812883, -0.5640673996862103, 0.35149703343963845, -0.1555029793676791, -0.17140535607613896, 0.26959937590355487
0.3180741405171117, 0.41959353110405384, -0.606363495535649, -0.1108153870496558, -0.44220313241707193, -0.6281177756984506, -0.22483139699851473, 0.08506406860330948, -0.4394930850042208, 0.03781098208105098, -0.06331306824478238, 0.07592805567115055, 0.042740561063923925, 0.05601592350105097, -0.3879375798166585, -0.009211707478512887, 0.10036189603697465, 0.32785500759255104, 0.5497645150900335, -0.322056672003745, -0.5832899032320175, -0.5445037798753191, 0.01212464308007386, 0.2717821931067261, 0.2507611391375958, -0.3916489302799358, -0.32291202730351454, 0.3379129772434056, -0.3468921434356622, -0.021754541614262227, 0.024240773101961065, 0.272761680184312, -0.5151827282702738, -0.6260782209828817, -0.0021512564553928595
0.3551236699592503, -0.024511123894742082, -0.21672309714511873, -0.1401816374573902, 0.3698175436254525, 0.2495616416443118, 0.13736939925491812, 0.01162316261103802, 0.18391095477562786, 0.14033688699253957, -0.20482875920763569, -0.21481637045725616, -0.3225048639716687, 0.3891432515830768, -0.3568521483567403, 0.13039105611562632, 0.4187157014764833, -0.059171307363065445, -0.3852720693203406, 0.19954112114188388, -0.119642462754704, 0.2024667894984269, -0.440825302446566, -0.01846790570539172, 0.32584432827722, -0.3417592783809048, 0.07556294186902024, -0.03632079081127878, -0.5195997213214876, 0.16114160216238194, 0.11137892952582039, -0.31211555585646134, -0.3418428368325307, 0.25860406559527316, 0.35772867527537894
0.3205226813334153, 0.1475681775897478, 0.5566988580042695, 0.0176212997144246, 0.3400625503452959, -0.2604385216136934, -0.15864382560046209, 0.22766085034854364, 0.46466386394692766, 0.28887889541371997, -0.5366264807128804, -0.35135278938201875, -0.052288087090320186, 0.21453775685936896, -0.04993275817816436, -0.3139009923901547, 0.3921016696887811, 0.12614032858618585, -0.47393545557740696, 0.08232544563693578, 0.1723685291285496, -0.14799897620661315, -0.12369206044239299, -0.23616204089091922, 0.32253737751901856, -0.17344914080942359, 0.19965391335002153, -0.15180785752544065, -0.16658257005648322, 0.4696296589077321, -0.45937242942996426, -0.5858779434697847, 0.20056103343315668, 0.48689419427100467, 0.38633025696418005
0.03683006090374947, 0.15491299061073888, -0.3335483983432984, 0.00406576907470894, 0.4266824529793245, -0.18376285963039324, -0.06549745395680474, 0.008889865945336053, 0.1502352891205157, -0.3012552973847479, 0.2916446193662235, 0.100944108146906, -0.4192188039358427, 0.1749952831565452, 0.4314964712470296, -0.22487925367110242, 0.043859652714562186, 0.4228733956750629, 0.6390039833580516, -0.07089606769464996, 0.009839031585618833, -0.027888170072404198, 0.13722440586961893, 0.3419251481042402, 0.8386483070593773, -0.14226332110252754, 0.02713249313359258, 0.0477412709281027, -0.23610653517089789, 0.3251194684928967, 0.23281056102745282, 0.01240730232214609, 0.19555003937924748, -0.6437832325944602, 0.352543363831861
-0.2430508527459881, 0.2781054535850308, -0.011032490874750087, 0.4256116643508675, -0.09216929862006808, -0.03967697701970335, 0.16268031457100424, -0.49470146145300403, -0.5366164914084642, -0.01011682123371277, 0.49379615323477266, -0.5603345163851395, -0.010816581033605839, 0.5931879391025064, 0.16741268587377095, -0.023240640716819777, -0.11804943457556982, -0.19823343261415965, 0.14219362087685308, 0.3642083553169566, 0.28764393011175593, -0.3637315772538875, 0.15268461497739624, 0.11541580084230046, 0.6280417961651932, -0.638841303292174, -0.04706541437114359, 0.09881711450059152, 0.25517368442353144, 0.43442677327360263, 0.024154585406740446, 0.45298884468326195, -0.8881957203557955, 0.12274954296661728, 0.2955001822515262
-0.16399282934351095, -0.08643827841409873, 0.4521941630067446, -0.31597445479140446, 0.1838185841845173, 0.09543043920399512, 0.12257632229206611, -0.2966870331664718, -0.6758358101186833, -0.3386260032386841, -0.4757840502519779, 0.4845754971641905, -0.40264604709865287, -0.7156256945757463, -0.28526006832847767, 0.3111017330134648, -0.206798538658918, -0.30450020586721616, 0.16820551282546792, -0.3127896867905216, 0.24707635234624795, -0.5510870914491178, -0.7700484111240549, 0.4540386906358169, 0.16622954378527408, -0.39756409694995165, -0.1630944411452636, -0.5290551469847427, 0.051670175224156456, 0.09681995477590884, -0.0321275299365585, 0.2558689644166825, 0.3746942572563736, 0.030981598612834706, 0.7020392448131152
